{"learner":{"attributes":{"best_iteration":"279","best_ntree_limit":"280","scikit_learn":"{\"n_estimators\": 280, \"objective\": \"reg:squarederror\", \"max_depth\": 3, \"max_leaves\": null, \"max_bin\": null, \"grow_policy\": null, \"learning_rate\": 0.03, \"verbosity\": null, \"booster\": null, \"tree_method\": null, \"gamma\": null, \"min_child_weight\": null, \"max_delta_step\": null, \"subsample\": 0.6, \"sampling_method\": null, \"colsample_bytree\": 0.75, \"colsample_bylevel\": 0.75, \"colsample_bynode\": null, \"reg_alpha\": 0, \"reg_lambda\": 0.5, \"scale_pos_weight\": null, \"base_score\": null, \"missing\": NaN, \"num_parallel_tree\": null, \"random_state\": null, \"n_jobs\": null, \"monotone_constraints\": null, \"interaction_constraints\": null, \"importance_type\": null, \"gpu_id\": null, \"validate_parameters\": null, \"predictor\": null, \"enable_categorical\": false, \"max_cat_to_onehot\": null, \"eval_metric\": null, \"early_stopping_rounds\": null, \"callbacks\": null, \"kwargs\": {\"seed\": 20}, \"_estimator_type\": \"regressor\"}"},"feature_names":["duration","playerCount","teamCount","weekday","hour","squad_ordinal","map_fortkeep","map_rebirth","time_slot","playerStats.rank_mean","playerStats.rank_std","playerStats.kdRatio_mean","playerStats.kdRatio_std","playerStats.kills_mean","playerStats.kills_std","playerStats.deaths_mean","playerStats.deaths_std","playerStats.assists_mean","playerStats.assists_std","playerStats.damageDone_mean","playerStats.damageDone_std","playerStats.damageTaken_mean","playerStats.damageTaken_std","playerStats.kills_by_timePlayed_mean","playerStats.kills_by_timePlayed_std","playerStats.deaths_by_timePlayed_mean","playerStats.deaths_by_timePlayed_std","playerStats.damageDone_by_timePlayed_mean","playerStats.damageDone_by_timePlayed_std","playerStats.damageTaken_by_timePlayed_mean","playerStats.damageTaken_by_timePlayed_std","playerStats.damageDone_by_kill_mean","playerStats.damageDone_by_kill_std","playerStats.scorePerMinute_mean","playerStats.scorePerMinute_std","playerStats.teamSurvivalTime_mean","playerStats.teamSurvivalTime_std","playerStats.timePlayed_mean","playerStats.timePlayed_std","playerStats.percentTimeMoving_mean","playerStats.percentTimeMoving_std","player.awards.streak_5_mean","player.awards.streak_5_std","player.awards.double_mean","player.awards.double_std","playerStats.headshots_mean","playerStats.headshots_std","player.brMissionStats.missionsComplete_mean","player.brMissionStats.missionsComplete_std","playerStats.headshots_by_kill_mean","playerStats.headshots_by_kill_std","pct_players_0_kills","pct_players_5_kills","pct_players_10_kills","pct_players_with_streak_5","pct_players_with_double","pct_players_with_headshots"],"feature_types":["float","float","float","int","int","int","float","float","int","float","float","float","float","float","float","float","float","float","float","float","float","float","float","float","float","float","float","float","float","float","float","float","float","float","float","float","float","float","float","float","float","float","float","float","float","float","float","float","float","float","float","int","int","int","float","float","float"],"gradient_booster":{"model":{"gbtree_model_param":{"num_parallel_tree":"1","num_trees":"280","size_leaf_vector":"0"},"tree_info":[0,0,0,0,0,0,0,0,0,0,0,0,0,0,0,0,0,0,0,0,0,0,0,0,0,0,0,0,0,0,0,0,0,0,0,0,0,0,0,0,0,0,0,0,0,0,0,0,0,0,0,0,0,0,0,0,0,0,0,0,0,0,0,0,0,0,0,0,0,0,0,0,0,0,0,0,0,0,0,0,0,0,0,0,0,0,0,0,0,0,0,0,0,0,0,0,0,0,0,0,0,0,0,0,0,0,0,0,0,0,0,0,0,0,0,0,0,0,0,0,0,0,0,0,0,0,0,0,0,0,0,0,0,0,0,0,0,0,0,0,0,0,0,0,0,0,0,0,0,0,0,0,0,0,0,0,0,0,0,0,0,0,0,0,0,0,0,0,0,0,0,0,0,0,0,0,0,0,0,0,0,0,0,0,0,0,0,0,0,0,0,0,0,0,0,0,0,0,0,0,0,0,0,0,0,0,0,0,0,0,0,0,0,0,0,0,0,0,0,0,0,0,0,0,0,0,0,0,0,0,0,0,0,0,0,0,0,0,0,0,0,0,0,0,0,0,0,0,0,0,0,0,0,0,0,0,0,0,0,0,0,0,0,0,0,0,0,0,0,0,0,0,0,0,0,0,0,0,0,0],"trees":[{"base_weights":[6.387617E-1,6.023638E-1,6.971537E-1,5.6652683E-1,6.3632184E-1,6.735109E-1,7.76E-1,5.7690287E-1,4.7428572E-1,2.6E-1,6.374596E-1],"categories":[],"categories_nodes":[],"categories_segments":[],"categories_sizes":[],"default_left":[1,1,1,1,1,0,0,0,0,0,0],"id":0,"left_children":[1,3,5,7,9,-1,-1,-1,-1,-1,-1],"loss_changes":[1.2660828E0,3.4487915E-1,2.2988892E-1,6.8489075E-2,1.0261536E-2,0E0,0E0,0E0,0E0,0E0,0E0],"parents":[2147483647,0,0,1,1,2,2,3,3,4,4],"right_children":[2,4,6,8,10,-1,-1,-1,-1,-1,-1],"split_conditions":[1.7820821E0,5.284244E-3,2.0437908E0,2.225E1,1.1774421E0,2.0205326E-2,2.328E-2,1.7307086E-2,1.4228571E-2,7.7999993E-3,1.9123787E-2],"split_indices":[28,25,29,55,28,0,0,0,0,0,0],"split_type":[0,0,0,0,0,0,0,0,0,0,0],"sum_hessian":[6.94E2,4.31E2,2.63E2,2.14E2,2.17E2,2.06E2,5.7E1,1.9E2,2.4E1,1E0,2.16E2],"tree_param":{"num_deleted":"0","num_feature":"57","num_nodes":"11","size_leaf_vector":"0"}},{"base_weights":[6.212985E-1,5.821378E-1,6.667234E-1,5.62855E-1,6.237238E-1,6.5514237E-1,7.4454635E-1,5.8756876E-1,5.3405976E-1,6.2606585E-1,2.3391747E-1,6.2490976E-1,6.9167805E-1],"categories":[],"categories_nodes":[],"categories_segments":[],"categories_sizes":[],"default_left":[1,1,1,1,0,1,0,0,0,0,0,0,0],"id":1,"left_children":[1,3,5,7,9,11,-1,-1,-1,-1,-1,-1,-1],"loss_changes":[1.0698242E0,1.3360596E-1,4.9484253E-2,3.4172058E-2,3.4046173E-2,1.0144043E-1,0E0,0E0,0E0,0E0,0E0,0E0,0E0],"parents":[2147483647,0,0,1,1,2,2,3,3,4,4,5,5],"right_children":[2,4,6,8,10,12,-1,-1,-1,-1,-1,-1,-1],"split_conditions":[4.1549145E-3,5.473757E-3,5.9301895E-3,5.7239087E2,3.2416138E5,3.9340186E2,2.233639E-2,1.7627062E-2,1.6021792E-2,1.8781975E-2,7.017524E-3,1.8747292E-2,2.075034E-2],"split_indices":[24,25,23,37,44,33,0,0,0,0,0,0,0],"split_type":[0,0,0,0,0,0,0,0,0,0,0,0,0],"sum_hessian":[7.1E2,3.85E2,3.25E2,2.68E2,1.17E2,2.87E2,3.8E1,1.39E2,1.29E2,1.16E2,1E0,1.62E2,1.25E2],"tree_param":{"num_deleted":"0","num_feature":"57","num_nodes":"13","size_leaf_vector":"0"}},{"base_weights":[5.9918106E-1,5.5700076E-1,6.452961E-1,5.2358466E-1,5.830475E-1,6.240495E-1,7.136704E-1,5.3163224E-1,3.4745514E-1,4.3915418E-1,5.92045E-1],"categories":[],"categories_nodes":[],"categories_segments":[],"categories_sizes":[],"default_left":[1,1,1,1,1,0,0,0,0,0,0],"id":2,"left_children":[1,3,5,7,9,-1,-1,-1,-1,-1,-1],"loss_changes":[1.1381226E0,1.5852356E-1,2.4291992E-1,1.3655472E-1,1.2440491E-1,0E0,0E0,0E0,0E0,0E0,0E0],"parents":[2147483647,0,0,1,1,2,2,3,3,4,4],"right_children":[2,4,6,8,10,-1,-1,-1,-1,-1,-1],"split_conditions":[1.726314E0,1.758189E0,2.0385864E0,6.916553E2,5.2162624E1,1.8721484E-2,2.1410111E-2,1.5948966E-2,1.0423654E-2,1.3174625E-2,1.776135E-2],"split_indices":[28,29,29,37,9,0,0,0,0,0,0],"split_type":[0,0,0,0,0,0,0,0,0,0,0],"sum_hessian":[6.77E2,3.57E2,3.2E2,1.61E2,1.96E2,2.48E2,7.2E1,1.53E2,8E0,1.3E1,1.83E2],"tree_param":{"num_deleted":"0","num_feature":"57","num_nodes":"11","size_leaf_vector":"0"}},{"base_weights":[5.895728E-1,6.1393E-1,5.27247E-1,5.689835E-1,6.459063E-1,3.711333E-1,5.3615355E-1,4.385974E-1,5.7431304E-1,6.1726475E-1,6.954281E-1,5.430172E-1,4.063072E-1],"categories":[],"categories_nodes":[],"categories_segments":[],"categories_sizes":[],"default_left":[1,1,1,1,1,0,1,0,0,0,0,0,0],"id":3,"left_children":[1,3,5,7,9,-1,11,-1,-1,-1,-1,-1,-1],"loss_changes":[9.0763855E-1,5.398865E-1,1.8067932E-1,2.2407532E-2,1.9741058E-1,0E0,5.857086E-2,0E0,0E0,0E0,0E0,0E0,0E0],"parents":[2147483647,0,0,1,1,2,2,3,3,4,4,6,6],"right_children":[2,4,6,8,10,-1,12,-1,-1,-1,-1,-1,-1],"split_conditions":[4.733324E5,1.7332087E0,2.9190988E-3,1.3373717E0,2.9031916E0,1.1133999E-2,2.3584429E1,1.3157922E-2,1.7229391E-2,1.8517941E-2,2.0862842E-2,1.6290516E-2,1.2189215E-2],"split_indices":[41,28,24,28,27,0,55,0,0,0,0,0,0],"split_type":[0,0,0,0,0,0,0,0,0,0,0,0,0],"sum_hessian":[7.04E2,5.03E2,2.01E2,2.13E2,2.9E2,1.2E1,1.89E2,1E1,2.03E2,1.88E2,1.02E2,1.78E2,1.1E1],"tree_param":{"num_deleted":"0","num_feature":"57","num_nodes":"13","size_leaf_vector":"0"}},{"base_weights":[5.6226355E-1,5.279879E-1,6.0708004E-1,4.5733777E-1,5.4183215E-1,2.6445973E-1,6.089452E-1,4.625635E-1,2.2686513E-1,5.513001E-1,6.2393993E-1],"categories":[],"categories_nodes":[],"categories_segments":[],"categories_sizes":[],"default_left":[1,1,1,1,0,0,1,0,0,0,0],"id":4,"left_children":[1,3,5,7,-1,-1,9,-1,-1,-1,-1],"loss_changes":[9.096222E-1,2.6587677E-1,1.1023712E-1,3.0032158E-2,0E0,0E0,8.429718E-2,0E0,0E0,0E0,0E0],"parents":[2147483647,0,0,1,1,2,2,3,3,6,6],"right_children":[2,4,6,8,-1,-1,10,-1,-1,-1,-1],"split_conditions":[4.1549145E-3,1.3734713E0,1.2213472E5,7.293125E2,1.6254963E-2,7.933792E-3,1.739743E0,1.3876905E-2,6.8059536E-3,1.6539004E-2,1.8718198E-2],"split_indices":[24,28,36,37,0,0,28,0,0,0,0],"split_type":[0,0,0,0,0,0,0,0,0,0,0],"sum_hessian":[6.96E2,3.98E2,2.98E2,6.8E1,3.3E2,2E0,2.96E2,6.6E1,2E0,6.5E1,2.31E2],"tree_param":{"num_deleted":"0","num_feature":"57","num_nodes":"11","size_leaf_vector":"0"}},{"base_weights":[5.529863E-1,5.2493066E-1,5.9435403E-1,4.886686E-1,5.5348015E-1,5.8472997E-1,7.138078E-1,2.6744404E-1,4.9271804E-1,4.59831E-1,5.62708E-1,5.26938E-1,5.996227E-1],"categories":[],"categories_nodes":[],"categories_segments":[],"categories_sizes":[],"default_left":[1,1,1,1,1,1,0,0,0,0,0,0,0],"id":5,"left_children":[1,3,5,7,9,11,-1,-1,-1,-1,-1,-1,-1],"loss_changes":[6.5467834E-1,3.0010223E-1,1.1147308E-1,1.0387421E-1,7.067871E-2,6.6230774E-2,0E0,0E0,0E0,0E0,0E0,0E0,0E0],"parents":[2147483647,0,0,1,1,2,2,3,3,4,4,5,5],"right_children":[2,4,6,8,10,12,-1,-1,-1,-1,-1,-1,-1],"split_conditions":[1.7684815E0,5.2512907E-3,5.958246E-3,2.1679276E2,5.2573204E1,1.3528726E3,2.1414233E-2,8.023321E-3,1.4781541E-2,1.379493E-2,1.688124E-2,1.580814E-2,1.7988682E-2],"split_indices":[28,25,23,33,9,19,0,0,0,0,0,0,0],"split_type":[0,0,0,0,0,0,0,0,0,0,0,0,0],"sum_hessian":[6.98E2,4.2E2,2.78E2,1.89E2,2.31E2,2.6E2,1.8E1,4E0,1.85E2,2.3E1,2.08E2,5.7E1,2.03E2],"tree_param":{"num_deleted":"0","num_feature":"57","num_nodes":"13","size_leaf_vector":"0"}},{"base_weights":[5.36775E-1,4.97079E-1,5.736178E-1,4.3416888E-1,5.1661545E-1,6.033892E-1,5.192623E-1,4.7141564E-1,3.7190574E-1,4.7057083E-1,5.3147334E-1,5.3673756E-1,6.2299377E-1,4.75057E-1,5.5491024E-1],"categories":[],"categories_nodes":[],"categories_segments":[],"categories_sizes":[],"default_left":[1,1,1,1,1,1,1,0,0,0,0,0,0,0,0],"id":6,"left_children":[1,3,5,7,9,11,13,-1,-1,-1,-1,-1,-1,-1,-1],"loss_changes":[8.380432E-1,2.8913116E-1,4.008255E-1,9.902573E-2,4.359436E-2,1.1962128E-1,6.5956116E-2,0E0,0E0,0E0,0E0,0E0,0E0,0E0,0E0],"parents":[2147483647,0,0,1,1,2,2,3,3,4,4,5,5,6,6],"right_children":[2,4,6,8,10,12,14,-1,-1,-1,-1,-1,-1,-1,-1],"split_conditions":[2.6928701E0,1.4982644E0,6.141255E2,5.1366438E5,2.1769168E2,4.0440625E-3,2.9241638E0,1.4142469E-2,1.1157172E-2,1.41171245E-2,1.59442E-2,1.6102126E-2,1.8689813E-2,1.425171E-2,1.6647307E-2],"split_indices":[27,28,37,35,34,24,27,0,0,0,0,0,0,0,0],"split_type":[0,0,0,0,0,0,0,0,0,0,0,0,0,0,0],"sum_hessian":[6.7E2,3.26E2,3.44E2,8E1,2.46E2,2.19E2,1.25E2,4.8E1,3.2E1,6.4E1,1.82E2,5.3E1,1.66E2,5.9E1,6.6E1],"tree_param":{"num_deleted":"0","num_feature":"57","num_nodes":"15","size_leaf_vector":"0"}},{"base_weights":[5.18661E-1,4.5742545E-1,5.4648846E-1,4.9526444E-1,4.234041E-1,4.6756956E-1,5.6398803E-1,5.085865E-1,3.811336E-1,4.0431768E-1,4.741341E-1,5.941345E-1,5.308905E-1],"categories":[],"categories_nodes":[],"categories_segments":[],"categories_sizes":[],"default_left":[1,1,1,1,1,0,1,0,0,0,0,0,0],"id":7,"left_children":[1,3,5,7,9,-1,11,-1,-1,-1,-1,-1,-1],"loss_changes":[1.0499573E0,1.7643356E-1,5.1930237E-1,5.5885315E-2,1.8888474E-2,0E0,2.2492981E-1,0E0,0E0,0E0,0E0,0E0,0E0],"parents":[2147483647,0,0,1,1,2,2,3,3,4,4,6,6],"right_children":[2,4,6,8,10,-1,12,-1,-1,-1,-1,-1,-1],"split_conditions":[1.5950494E0,4.708827E5,2.4696264E0,2.1320347E1,5.3979378E1,1.4027086E-2,5.5802814E2,1.5257595E-2,1.1434007E-2,1.212953E-2,1.4224023E-2,1.7824035E-2,1.5926715E-2],"split_indices":[28,41,27,40,9,0,37,0,0,0,0,0,0],"split_type":[0,0,0,0,0,0,0,0,0,0,0,0,0],"sum_hessian":[6.89E2,2.18E2,4.71E2,1E2,1.18E2,8.8E1,3.83E2,8.8E1,1.2E1,8.9E1,2.9E1,1.96E2,1.87E2],"tree_param":{"num_deleted":"0","num_feature":"57","num_nodes":"13","size_leaf_vector":"0"}},{"base_weights":[5.024406E-1,4.681943E-1,5.4284835E-1,4.8393562E-1,3.845617E-1,5.219897E-1,6.2158984E-1,2.9487988E-1,4.8766288E-1,2.995932E-1,4.07752E-1,5.0918597E-1,5.9452575E-1,6.2689966E-1,1.8961056E-1],"categories":[],"categories_nodes":[],"categories_segments":[],"categories_sizes":[],"default_left":[1,1,1,1,1,1,1,0,0,0,0,0,0,0,0],"id":8,"left_children":[1,3,5,7,9,11,13,-1,-1,-1,-1,-1,-1,-1,-1],"loss_changes":[8.4921265E-1,4.1445923E-1,3.6416626E-1,1.553421E-1,6.4043045E-2,8.686066E-2,8.851242E-2,0E0,0E0,0E0,0E0,0E0,0E0,0E0,0E0],"parents":[2147483647,0,0,1,1,2,2,3,3,4,4,5,5,6,6],"right_children":[2,4,6,8,10,12,14,-1,-1,-1,-1,-1,-1,-1,-1],"split_conditions":[2.7380037E0,5.560819E5,4.928946E-3,2.124273E2,1.364103E0,1.15E1,3.9359816E5,8.846397E-3,1.46298865E-2,8.9877965E-3,1.223256E-2,1.5275579E-2,1.7835772E-2,1.880699E-2,5.6883167E-3],"split_indices":[27,35,24,33,28,51,43,0,0,0,0,0,0,0,0],"split_type":[0,0,0,0,0,0,0,0,0,0,0,0,0,0,0],"sum_hessian":[7.05E2,3.85E2,3.2E2,3.22E2,6.3E1,2.56E2,6.4E1,7E0,3.15E2,1.5E1,4.8E1,2.21E2,3.5E1,6.3E1,1E0],"tree_param":{"num_deleted":"0","num_feature":"57","num_nodes":"15","size_leaf_vector":"0"}},{"base_weights":[4.819315E-1,5.0700027E-1,4.2443183E-1,4.8291084E-1,5.385589E-1,2.8196234E-1,4.3154496E-1,4.5326534E-1,5.087815E-1,5.1022214E-1,5.8443636E-1,3.514904E-1,4.399316E-1],"categories":[],"categories_nodes":[],"categories_segments":[],"categories_sizes":[],"default_left":[1,1,1,1,1,0,1,0,0,0,0,0,0],"id":9,"left_children":[1,3,5,7,9,-1,11,-1,-1,-1,-1,-1,-1],"loss_changes":[8.81958E-1,2.3145294E-1,1.5349197E-1,9.5214844E-2,1.12854004E-1,0E0,5.7296753E-2,0E0,0E0,0E0,0E0,0E0,0E0],"parents":[2147483647,0,0,1,1,2,2,3,3,4,4,6,6],"right_children":[2,4,6,8,10,-1,12,-1,-1,-1,-1,-1,-1],"split_conditions":[4.745367E5,1.3242708E3,2.9375341E-3,4.4862214E-3,6.0502966E-3,8.4588695E-3,5.2412094E1,1.359796E-2,1.5263445E-2,1.5306664E-2,1.753309E-2,1.0544712E-2,1.3197947E-2],"split_indices":[41,20,24,23,25,0,9,0,0,0,0,0,0],"split_type":[0,0,0,0,0,0,0,0,0,0,0,0,0],"sum_hessian":[6.86E2,4.75E2,2.11E2,2.74E2,2.01E2,1.1E1,2E2,1.32E2,1.42E2,1.28E2,7.3E1,2.1E1,1.79E2],"tree_param":{"num_deleted":"0","num_feature":"57","num_nodes":"13","size_leaf_vector":"0"}},{"base_weights":[4.708655E-1,4.4148746E-1,5.0340116E-1,3.4147984E-1,4.498464E-1,4.9560553E-1,6.072971E-1,3.0006507E-1,4.4848078E-1,3.9557123E-1,4.6251175E-1,5.214354E-1,4.554294E-1,1.7443128E-1,6.2502277E-1],"categories":[],"categories_nodes":[],"categories_segments":[],"categories_sizes":[],"default_left":[1,1,1,1,1,1,1,0,0,0,0,0,0,0,0],"id":10,"left_children":[1,3,5,7,9,11,13,-1,-1,-1,-1,-1,-1,-1,-1],"loss_changes":[5.517578E-1,2.3123932E-1,1.1314392E-1,6.787157E-2,1.4121246E-1,1.9828796E-1,1.02781296E-1,0E0,0E0,0E0,0E0,0E0,0E0,0E0,0E0],"parents":[2147483647,0,0,1,1,2,2,3,3,4,4,5,5,6,6],"right_children":[2,4,6,8,10,12,14,-1,-1,-1,-1,-1,-1,-1,-1],"split_conditions":[2.7369895E0,3.1268233E-3,4.5E0,2.622807E2,1.494574E0,6.044375E2,1.179301E5,9.001952E-3,1.3454423E-2,1.1867137E-2,1.3875352E-2,1.564306E-2,1.3662882E-2,5.232938E-3,1.8750682E-2],"split_indices":[27,24,53,34,28,37,36,0,0,0,0,0,0,0,0],"split_type":[0,0,0,0,0,0,0,0,0,0,0,0,0,0,0],"sum_hessian":[6.93E2,3.68E2,3.25E2,3E1,3.38E2,3.05E2,2E1,2.3E1,7E0,6.7E1,2.71E2,1.82E2,1.23E2,1E0,1.9E1],"tree_param":{"num_deleted":"0","num_feature":"57","num_nodes":"15","size_leaf_vector":"0"}},{"base_weights":[4.6045914E-1,4.2675355E-1,5.0445926E-1,2.2507562E-1,4.2956412E-1,4.8706046E-1,5.8134645E-1,4.385396E-1,3.617523E-1,2.633125E-1,4.9020824E-1,3.9956948E-1,5.9627485E-1],"categories":[],"categories_nodes":[],"categories_segments":[],"categories_sizes":[],"default_left":[1,1,1,0,1,1,1,0,0,0,0,0,0],"id":11,"left_children":[1,3,5,-1,7,9,11,-1,-1,-1,-1,-1,-1],"loss_changes":[9.22348E-1,1.7640686E-1,2.5774384E-1,0E0,1.5835571E-1,1.0907364E-1,2.3340225E-2,0E0,0E0,0E0,0E0,0E0,0E0],"parents":[2147483647,0,0,1,1,2,2,4,4,5,5,6,6],"right_children":[2,4,6,-1,8,10,12,-1,-1,-1,-1,-1,-1],"split_conditions":[4.162551E-3,2.1992242E2,3.154325E0,6.7522684E-3,7.2811337E0,3.0973166E-1,1.2195671E3,1.3156188E-2,1.0852569E-2,7.899375E-3,1.4706247E-2,1.19870845E-2,1.7888246E-2],"split_indices":[24,33,27,0,10,49,20,0,0,0,0,0,0],"split_type":[0,0,0,0,0,0,0,0,0,0,0,0,0],"sum_hessian":[6.94E2,3.96E2,2.98E2,6E0,3.9E2,2.46E2,5.2E1,3.42E2,4.8E1,4E0,2.42E2,5E0,4.7E1],"tree_param":{"num_deleted":"0","num_feature":"57","num_nodes":"13","size_leaf_vector":"0"}},{"base_weights":[4.4417775E-1,4.20019E-1,4.9643508E-1,4.423533E-1,3.71436E-1,4.7744495E-1,5.54131E-1,4.1910392E-1,4.8670644E-1,3.130265E-1,3.8799962E-1,4.7868276E-1,1.8172343E-1,2.790695E-1,5.625967E-1],"categories":[],"categories_nodes":[],"categories_segments":[],"categories_sizes":[],"default_left":[1,1,1,1,1,1,1,0,0,0,0,0,0,0,0],"id":12,"left_children":[1,3,5,7,9,11,13,-1,-1,-1,-1,-1,-1,-1,-1],"loss_changes":[7.7127075E-1,4.359665E-1,1.0492706E-1,2.3262787E-1,8.778E-2,1.745224E-2,3.9092064E-2,0E0,0E0,0E0,0E0,0E0,0E0,0E0,0E0],"parents":[2147483647,0,0,1,1,2,2,3,3,4,4,5,5,6,6],"right_children":[2,4,6,8,10,12,14,-1,-1,-1,-1,-1,-1,-1,-1],"split_conditions":[2.863546E0,5.9117267E2,4.928946E-3,2.6352031E0,9.5E0,1.7189664E0,4.819316E-3,1.2573117E-2,1.4601192E-2,9.390795E-3,1.1639988E-2,1.4360483E-2,5.451703E-3,8.372085E-3,1.68779E-2],"split_indices":[27,37,24,27,52,11,23,0,0,0,0,0,0,0,0],"split_type":[0,0,0,0,0,0,0,0,0,0,0,0,0,0,0],"sum_hessian":[6.93E2,4.77E2,2.16E2,3.24E2,1.53E2,1.66E2,5E1,2.16E2,1.08E2,3.6E1,1.17E2,1.65E2,1E0,2E0,4.8E1],"tree_param":{"num_deleted":"0","num_feature":"57","num_nodes":"15","size_leaf_vector":"0"}},{"base_weights":[4.3344936E-1,3.8986695E-1,4.6416903E-1,4.0059558E-1,3.2745942E-1,4.445741E-1,5.1340115E-1,3.254745E-1,4.0686965E-1,3.3919296E-1,1.3820104E-1,3.886137E-1,4.6148184E-1,4.6094382E-1,5.578837E-1],"categories":[],"categories_nodes":[],"categories_segments":[],"categories_sizes":[],"default_left":[1,1,1,1,1,1,1,0,0,0,0,0,0,0,0],"id":13,"left_children":[1,3,5,7,9,11,13,-1,-1,-1,-1,-1,-1,-1,-1],"loss_changes":[8.4336853E-1,1.2958527E-1,2.7802277E-1,4.9964905E-2,7.760191E-2,1.8897629E-1,1.3393402E-1,0E0,0E0,0E0,0E0,0E0,0E0,0E0,0E0],"parents":[2147483647,0,0,1,1,2,2,3,3,4,4,5,5,6,6],"right_children":[2,4,6,8,10,12,14,-1,-1,-1,-1,-1,-1,-1,-1],"split_conditions":[1.6555603E0,6.753942E2,3.3765802E0,2.1264915E0,8.163046E0,2.4746013E0,2.8458133E0,9.764235E-3,1.220609E-2,1.0175789E-2,4.146031E-3,1.1658411E-2,1.3844455E-2,1.3828314E-2,1.673651E-2],"split_indices":[28,37,14,27,10,27,27,0,0,0,0,0,0,0,0],"split_type":[0,0,0,0,0,0,0,0,0,0,0,0,0,0,0],"sum_hessian":[6.97E2,2.91E2,4.06E2,2.46E2,4.5E1,2.94E2,1.12E2,2.1E1,2.25E2,4.2E1,3E0,7.1E1,2.23E2,5.4E1,5.8E1],"tree_param":{"num_deleted":"0","num_feature":"57","num_nodes":"15","size_leaf_vector":"0"}},{"base_weights":[4.163655E-1,3.9196867E-1,4.5880812E-1,3.716039E-1,4.2293185E-1,4.477905E-1,5.502666E-1,3.2415986E-1,3.9048153E-1,4.2585444E-1,2.1680136E-1,2.913913E-1,4.519994E-1],"categories":[],"categories_nodes":[],"categories_segments":[],"categories_sizes":[],"default_left":[1,1,1,1,1,1,0,0,0,0,0,0,0],"id":14,"left_children":[1,3,5,7,9,11,-1,-1,-1,-1,-1,-1,-1],"loss_changes":[6.4888763E-1,2.0926666E-1,1.3626862E-1,1.8704224E-1,6.0770035E-2,8.7192535E-2,0E0,0E0,0E0,0E0,0E0,0E0,0E0],"parents":[2147483647,0,0,1,1,2,2,3,3,4,4,5,5],"right_children":[2,4,6,8,10,12,-1,-1,-1,-1,-1,-1,-1],"split_conditions":[1.7842348E0,5.502753E-3,5.914377E-3,5.3094475E1,4.266953E5,4.5E0,1.6507998E-2,9.724796E-3,1.1714445E-2,1.27756335E-2,6.5040407E-3,8.741739E-3,1.3559981E-2],"split_indices":[28,25,23,9,43,51,0,0,0,0,0,0,0],"split_type":[0,0,0,0,0,0,0,0,0,0,0,0,0],"sum_hessian":[7.13E2,4.56E2,2.57E2,2.79E2,1.77E2,2.32E2,2.5E1,8.2E1,1.97E2,1.74E2,3E0,7E0,2.25E2],"tree_param":{"num_deleted":"0","num_feature":"57","num_nodes":"13","size_leaf_vector":"0"}},{"base_weights":[4.0764228E-1,4.3425328E-1,3.5926095E-1,4.2366335E-1,5.1085645E-1,3.231868E-1,3.8591877E-1,3.3882806E-1,4.301985E-1,3.8966617E-1,5.5301285E-1,2.4401833E-1,3.332005E-1,3.608643E-1,4.405192E-1],"categories":[],"categories_nodes":[],"categories_segments":[],"categories_sizes":[],"default_left":[1,1,1,1,1,1,1,0,0,0,0,0,0,0,0],"id":15,"left_children":[1,3,5,7,9,11,13,-1,-1,-1,-1,-1,-1,-1,-1],"loss_changes":[8.4575653E-1,2.6535034E-1,1.8526459E-1,1.5304565E-1,1.6558266E-1,4.8532486E-2,1.19558334E-1,0E0,0E0,0E0,0E0,0E0,0E0,0E0,0E0],"parents":[2147483647,0,0,1,1,2,2,3,3,4,4,5,5,6,6],"right_children":[2,4,6,8,10,12,14,-1,-1,-1,-1,-1,-1,-1,-1],"split_conditions":[4.63388E5,3.1660733E0,5.35325E1,3.6109695E-1,1.7476928E0,5.2277885E1,3.0548277E-3,1.0164841E-2,1.2905954E-2,1.1689985E-2,1.6590385E-2,7.32055E-3,9.996016E-3,1.0825929E-2,1.3215576E-2],"split_indices":[41,27,9,50,28,9,26,0,0,0,0,0,0,0,0],"split_type":[0,0,0,0,0,0,0,0,0,0,0,0,0,0,0],"sum_hessian":[7.17E2,4.6E2,2.57E2,4.07E2,5.3E1,1.12E2,1.45E2,3.1E1,3.76E2,1.5E1,3.8E1,1.4E1,9.8E1,1.02E2,4.3E1],"tree_param":{"num_deleted":"0","num_feature":"57","num_nodes":"15","size_leaf_vector":"0"}},{"base_weights":[3.9220056E-1,3.5920683E-1,4.284943E-1,3.3784395E-1,3.9243516E-1,4.0375787E-1,4.578156E-1,3.638514E-1,2.930465E-1,2.0046197E-1,3.9586973E-1,4.071018E-1,2.5852636E-1,5.328951E-1,4.3878162E-1],"categories":[],"categories_nodes":[],"categories_segments":[],"categories_sizes":[],"default_left":[1,1,1,1,0,1,1,0,0,0,0,0,0,0,0],"id":16,"left_children":[1,3,5,7,9,11,13,-1,-1,-1,-1,-1,-1,-1,-1],"loss_changes":[7.606735E-1,1.9599915E-1,1.4728928E-1,2.1290588E-1,5.3619385E-2,3.64933E-2,9.387398E-2,0E0,0E0,0E0,0E0,0E0,0E0,0E0,0E0],"parents":[2147483647,0,0,1,1,2,2,3,3,4,4,5,5,6,6],"right_children":[2,4,6,8,10,12,14,-1,-1,-1,-1,-1,-1,-1,-1],"split_conditions":[1.720232E0,5.501383E-3,2.8078952E0,4.0123634E0,4.611081E4,1.4549081E0,7.81E5,1.0915542E-2,8.7913945E-3,6.013859E-3,1.1876091E-2,1.2213054E-2,7.7557904E-3,1.5986852E-2,1.3163448E-2],"split_indices":[28,25,27,10,44,11,0,0,0,0,0,0,0,0,0],"split_type":[0,0,0,0,0,0,0,0,0,0,0,0,0,0,0],"sum_hessian":[6.99E2,3.69E2,3.3E2,2.28E2,1.41E2,1.83E2,1.47E2,1.42E2,8.6E1,3E0,1.38E2,1.78E2,5E0,2.7E1,1.2E2],"tree_param":{"num_deleted":"0","num_feature":"57","num_nodes":"15","size_leaf_vector":"0"}},{"base_weights":[3.824635E-1,3.5092682E-1,4.137261E-1,3.7366107E-1,3.2681203E-1,3.9576086E-1,4.7922835E-1,1.4973648E-1,3.7576237E-1,2.361978E-1,3.50821E-1,3.9745736E-1,1.2829848E-1,4.2927918E-1,5.464529E-1],"categories":[],"categories_nodes":[],"categories_segments":[],"categories_sizes":[],"default_left":[1,1,1,1,1,1,1,0,0,0,0,0,0,0,0],"id":17,"left_children":[1,3,5,7,9,11,13,-1,-1,-1,-1,-1,-1,-1,-1],"loss_changes":[6.249466E-1,1.3383865E-1,3.1998062E-1,5.632782E-2,3.425541E-1,1.0132599E-1,1.2950706E-1,0E0,0E0,0E0,0E0,0E0,0E0,0E0,0E0],"parents":[2147483647,0,0,1,1,2,2,3,3,4,4,5,5,6,6],"right_children":[2,4,6,8,10,12,14,-1,-1,-1,-1,-1,-1,-1,-1],"split_conditions":[1.7204397E0,5.7660675E2,6.554674E2,8.7066597E-1,2.5133119E0,7.1554614E2,1.4712495E3,4.4920943E-3,1.1272871E-2,7.085934E-3,1.052463E-2,1.192372E-2,3.848954E-3,1.2878375E-2,1.6393585E-2],"split_indices":[28,37,22,11,27,37,20,0,0,0,0,0,0,0,0],"split_type":[0,0,0,0,0,0,0,0,0,0,0,0,0,0,0],"sum_hessian":[7.07E2,3.55E2,3.52E2,1.79E2,1.76E2,2.79E2,7.3E1,2E0,1.77E2,3.8E1,1.38E2,2.77E2,2E0,4.4E1,2.9E1],"tree_param":{"num_deleted":"0","num_feature":"57","num_nodes":"15","size_leaf_vector":"0"}},{"base_weights":[3.7029982E-1,3.38616E-1,4.0333062E-1,3.145439E-1,3.6754063E-1,3.822058E-1,4.6805254E-1,2.7003685E-1,3.4384578E-1,3.691758E-1,6.2436182E-2,3.6496034E-1,4.5233247E-1,4.7118446E-1,1.356035E-1],"categories":[],"categories_nodes":[],"categories_segments":[],"categories_sizes":[],"default_left":[1,1,1,1,1,1,1,0,0,0,0,0,0,0,0],"id":18,"left_children":[1,3,5,7,9,11,13,-1,-1,-1,-1,-1,-1,-1,-1],"loss_changes":[6.9934845E-1,2.0503998E-1,3.979721E-1,2.2679329E-1,7.2538376E-2,2.4580002E-1,5.70755E-2,0E0,0E0,0E0,0E0,0E0,0E0,0E0,0E0],"parents":[2147483647,0,0,1,1,2,2,3,3,4,4,5,5,6,6],"right_children":[2,4,6,8,10,12,14,-1,-1,-1,-1,-1,-1,-1,-1],"split_conditions":[2.6928701E0,2.6451007E2,1.15E1,1.5813403E0,1.2192751E3,3.1660733E0,1.9031384E0,8.101105E-3,1.0315374E-2,1.1075273E-2,1.8730854E-3,1.094881E-2,1.3569973E-2,1.4135534E-2,4.068105E-3],"split_indices":[27,34,51,28,21,27,50,0,0,0,0,0,0,0,0],"split_type":[0,0,0,0,0,0,0,0,0,0,0,0,0,0,0],"sum_hessian":[7.33E2,3.77E2,3.56E2,2.09E2,1.68E2,2.71E2,8.5E1,8.5E1,1.24E2,1.67E2,1E0,2.2E2,5.1E1,8.4E1,1E0],"tree_param":{"num_deleted":"0","num_feature":"57","num_nodes":"15","size_leaf_vector":"0"}},{"base_weights":[3.5364434E-1,2.7005902E-1,3.6191174E-1,1.592397E-1,2.8041825E-1,3.456749E-1,3.9449576E-1,1.7080717E-1,6.374574E-2,8.026608E-2,2.8330147E-1,3.3885732E-1,4.282133E-1,3.5770294E-1,4.3191347E-1],"categories":[],"categories_nodes":[],"categories_segments":[],"categories_sizes":[],"default_left":[1,1,1,1,0,1,1,0,0,0,0,0,0,0,0],"id":19,"left_children":[1,3,5,7,9,11,13,-1,-1,-1,-1,-1,-1,-1,-1],"loss_changes":[4.158554E-1,4.9423218E-2,2.5480652E-1,1.7359406E-3,2.1235466E-2,1.5900421E-1,1.9740486E-1,0E0,0E0,0E0,0E0,0E0,0E0,0E0,0E0],"parents":[2147483647,0,0,1,1,2,2,3,3,4,4,5,5,6,6],"right_children":[2,4,6,8,10,12,14,-1,-1,-1,-1,-1,-1,-1,-1],"split_conditions":[3.2830471E-3,5.240947E1,5.3905624E1,1.7859359E0,1.9615386E-2,5.955318E-3,3.4740845E2,5.124215E-3,1.9123721E-3,2.4079825E-3,8.499044E-3,1.0165719E-2,1.2846399E-2,1.0731088E-2,1.2957403E-2],"split_indices":[24,9,9,16,47,23,33,0,0,0,0,0,0,0,0],"split_type":[0,0,0,0,0,0,0,0,0,0,0,0,0,0,0],"sum_hessian":[6.72E2,6.2E1,6.1E2,6E0,5.6E1,4.11E2,1.99E2,5E0,1E0,1E0,5.5E1,3.82E2,2.9E1,1.03E2,9.6E1],"tree_param":{"num_deleted":"0","num_feature":"57","num_nodes":"15","size_leaf_vector":"0"}},{"base_weights":[3.4564975E-1,3.1216633E-1,3.6990017E-1,3.232403E-1,2.592608E-1,3.5082155E-1,4.0660056E-1,2.9559186E-1,3.3868957E-1,3.4212735E-1,2.2555967E-1,2.2742437E-1,3.5983503E-1,3.8767675E-1,4.724946E-1],"categories":[],"categories_nodes":[],"categories_segments":[],"categories_sizes":[],"default_left":[1,1,1,1,1,1,1,0,0,0,0,0,0,0,0],"id":20,"left_children":[1,3,5,7,9,11,13,-1,-1,-1,-1,-1,-1,-1,-1],"loss_changes":[5.053787E-1,1.3063812E-1,2.0840073E-1,5.3100586E-2,1.1082411E-1,2.5549316E-1,7.48806E-2,0E0,0E0,0E0,0E0,0E0,0E0,0E0,0E0],"parents":[2147483647,0,0,1,1,2,2,3,3,4,4,5,5,6,6],"right_children":[2,4,6,8,10,12,14,-1,-1,-1,-1,-1,-1,-1,-1],"split_conditions":[2.643753E0,1.284997E0,1.05E1,2.43426E2,1.5E0,5.2259613E1,2.002526E0,8.8677555E-3,1.0160686E-2,1.026382E-2,6.76679E-3,6.822731E-3,1.079505E-2,1.1630302E-2,1.4174838E-2],"split_indices":[27,11,51,34,3,9,16,0,0,0,0,0,0,0,0],"split_type":[0,0,0,0,0,0,0,0,0,0,0,0,0,0,0],"sum_hessian":[6.93E2,2.94E2,3.99E2,2.41E2,5.3E1,2.66E2,1.33E2,9E1,1.51E2,1.4E1,3.9E1,1.9E1,2.47E2,1.06E2,2.7E1],"tree_param":{"num_deleted":"0","num_feature":"57","num_nodes":"15","size_leaf_vector":"0"}},{"base_weights":[3.389448E-1,3.093624E-1,3.7191182E-1,1.5760535E-1,3.1284553E-1,3.524135E-1,4.103676E-1,3.3068752E-1,2.9502547E-1,3.404366E-1,4.2340624E-1,3.9203683E-1,5.6453246E-1],"categories":[],"categories_nodes":[],"categories_segments":[],"categories_sizes":[],"default_left":[1,1,1,0,1,1,1,0,0,0,0,0,0],"id":21,"left_children":[1,3,5,-1,7,9,11,-1,-1,-1,-1,-1,-1],"loss_changes":[6.373291E-1,1.7541885E-1,1.7850876E-1,0E0,6.869888E-2,1.1966324E-1,1.9878387E-1,0E0,0E0,0E0,0E0,0E0,0E0],"parents":[2147483647,0,0,1,1,2,2,4,4,5,5,6,6],"right_children":[2,4,6,-1,8,10,12,-1,-1,-1,-1,-1,-1],"split_conditions":[1.7180816E0,2.2012064E2,4.3167767E2,4.7281603E-3,4.612468E5,1.6021765E3,7.068529E2,9.920625E-3,8.850764E-3,1.0213098E-2,1.2702187E-2,1.1761105E-2,1.6935972E-2],"split_indices":[28,33,33,0,41,20,22,0,0,0,0,0,0],"split_type":[0,0,0,0,0,0,0,0,0,0,0,0,0],"sum_hessian":[7.12E2,3.78E2,3.34E2,9E0,3.69E2,2.25E2,1.09E2,1.8E2,1.89E2,1.95E2,3E1,9.9E1,1E1],"tree_param":{"num_deleted":"0","num_feature":"57","num_nodes":"13","size_leaf_vector":"0"}},{"base_weights":[3.2529634E-1,3.0362263E-1,3.631474E-1,3.2533252E-1,2.8161675E-1,3.2397863E-1,3.8337788E-1,2.5159794E-1,3.3478528E-1,2.7077666E-1,3.322563E-1,3.4068605E-1,2.6888448E-1,3.8866845E-1,1.5913731E-1],"categories":[],"categories_nodes":[],"categories_segments":[],"categories_sizes":[],"default_left":[1,1,1,1,1,1,1,0,0,0,0,0,0,0,0],"id":22,"left_children":[1,3,5,7,9,11,13,-1,-1,-1,-1,-1,-1,-1,-1],"loss_changes":[5.0149536E-1,1.6176987E-1,1.3163757E-1,1.0808563E-1,7.550812E-2,3.38192E-2,1.5711212E-1,0E0,0E0,0E0,0E0,0E0,0E0,0E0,0E0],"parents":[2147483647,0,0,1,1,2,2,3,3,4,4,5,5,6,6],"right_children":[2,4,6,8,10,12,14,-1,-1,-1,-1,-1,-1,-1,-1],"split_conditions":[2.8474293E0,4.46632E5,1.2509333E3,1.5375658E0,3.0887863E2,6.387677E2,7.262125E2,7.5479383E-3,1.0043559E-2,8.1233E-3,9.9676885E-3,1.0220582E-2,8.066534E-3,1.1660053E-2,4.7741192E-3],"split_indices":[27,41,20,28,34,37,37,0,0,0,0,0,0,0,0],"split_type":[0,0,0,0,0,0,0,0,0,0,0,0,0,0,0],"sum_hessian":[6.78E2,4.34E2,2.44E2,2.15E2,2.19E2,8.6E1,1.58E2,2.6E1,1.89E2,1.83E2,3.6E1,6.4E1,2.2E1,1.54E2,4E0],"tree_param":{"num_deleted":"0","num_feature":"57","num_nodes":"15","size_leaf_vector":"0"}},{"base_weights":[3.138053E-1,3.0616117E-1,4.0371466E-1,2.7355677E-1,3.2250786E-1,2.9015526E-1,4.392132E-1,2.5028726E-1,3.0828172E-1,2.945044E-1,3.4523195E-1,5.7595175E-2,3.0645624E-1,1.3394113E-1,4.45742E-1],"categories":[],"categories_nodes":[],"categories_segments":[],"categories_sizes":[],"default_left":[1,1,1,1,1,1,1,0,0,0,0,0,0,0,0],"id":23,"left_children":[1,3,5,7,9,11,13,-1,-1,-1,-1,-1,-1,-1,-1],"loss_changes":[3.9488983E-1,2.834015E-1,1.3985538E-1,1.2989521E-1,2.0783997E-1,4.2352796E-2,4.488802E-2,0E0,0E0,0E0,0E0,0E0,0E0,0E0,0E0],"parents":[2147483647,0,0,1,1,2,2,3,3,4,4,5,5,6,6],"right_children":[2,4,6,8,10,12,14,-1,-1,-1,-1,-1,-1,-1,-1],"split_conditions":[3.1660733E0,1.5965506E0,5E-1,1.8284228E0,2.3830319E2,1.5E0,8.263168E4,7.508618E-3,9.248451E-3,8.835132E-3,1.0356958E-2,1.7278552E-3,9.193687E-3,4.0182336E-3,1.337226E-2],"split_indices":[27,28,3,29,34,8,42,0,0,0,0,0,0,0,0],"split_type":[0,0,0,0,0,0,0,0,0,0,0,0,0,0,0],"sum_hessian":[6.64E2,6.14E2,5E1,2.08E2,4.06E2,1.3E1,3.7E1,1.27E2,8.1E1,1.85E2,2.21E2,1E0,1.2E1,1E0,3.6E1],"tree_param":{"num_deleted":"0","num_feature":"57","num_nodes":"15","size_leaf_vector":"0"}},{"base_weights":[3.0546415E-1,3.24954E-1,2.6138076E-1,3.0149165E-1,3.501346E-1,2.485185E-1,3.347782E-1,9.683078E-2,3.038531E-1,4.090119E-1,3.2565907E-1,3.045315E-1,2.2906245E-1,3.5214943E-1,1.9914371E-1],"categories":[],"categories_nodes":[],"categories_segments":[],"categories_sizes":[],"default_left":[1,1,1,1,1,1,1,0,0,0,0,0,0,0,0],"id":24,"left_children":[1,3,5,7,9,11,13,-1,-1,-1,-1,-1,-1,-1,-1],"loss_changes":[5.3189087E-1,2.1987152E-1,1.5429306E-1,1.02487564E-1,2.497139E-1,1.596489E-1,3.4441948E-2,0E0,0E0,0E0,0E0,0E0,0E0,0E0,0E0],"parents":[2147483647,0,0,1,1,2,2,3,3,4,4,5,5,6,6],"right_children":[2,4,6,8,10,12,14,-1,-1,-1,-1,-1,-1,-1,-1],"split_conditions":[4.7289956E5,2.767668E0,2.943575E0,2.1114163E2,3.818417E5,1.373789E-1,5.581484E-3,2.9049232E-3,9.115593E-3,1.22703565E-2,9.769772E-3,9.135946E-3,6.8718735E-3,1.0564483E-2,5.974311E-3],"split_indices":[41,27,27,33,41,10,23,0,0,0,0,0,0,0,0],"split_type":[0,0,0,0,0,0,0,0,0,0,0,0,0,0,0],"sum_hessian":[6.68E2,4.61E2,2.07E2,2.42E2,2.19E2,1.78E2,2.9E1,3E0,2.39E2,6.2E1,1.57E2,4.4E1,1.34E2,2.5E1,4E0],"tree_param":{"num_deleted":"0","num_feature":"57","num_nodes":"15","size_leaf_vector":"0"}},{"base_weights":[2.989832E-1,2.7297747E-1,3.2928377E-1,2.8532392E-1,2.4399123E-1,3.344949E-1,1.9530208E-1,2.335383E-1,2.9132307E-1,1.1034635E-1,2.5181648E-1,2.3198554E-1,3.410404E-1,2.1575959E-1,6.2137127E-2],"categories":[],"categories_nodes":[],"categories_segments":[],"categories_sizes":[],"default_left":[1,1,1,1,1,1,0,0,0,0,0,0,0,0,0],"id":25,"left_children":[1,3,5,7,9,11,13,-1,-1,-1,-1,-1,-1,-1,-1],"loss_changes":[5.196533E-1,1.04227066E-1,1.9669342E-1,4.970932E-2,1.1108017E-1,1.721344E-1,3.0073702E-2,0E0,0E0,0E0,0E0,0E0,0E0,0E0,0E0],"parents":[2147483647,0,0,1,1,2,2,3,3,4,4,5,5,6,6],"right_children":[2,4,6,8,10,12,14,-1,-1,-1,-1,-1,-1,-1,-1],"split_conditions":[4.153469E-3,5.5465544E5,5.934806E5,9.382115E2,5.2238388E1,3.832473E-3,3.2596153E-1,7.006149E-3,8.739692E-3,3.3103903E-3,7.5544943E-3,6.959566E-3,1.0231212E-2,6.4727874E-3,1.8641137E-3],"split_indices":[24,35,35,20,9,23,47,0,0,0,0,0,0,0,0],"split_type":[0,0,0,0,0,0,0,0,0,0,0,0,0,0,0],"sum_hessian":[7.16E2,3.88E2,3.28E2,2.69E2,1.19E2,3.15E2,1.3E1,3E1,2.39E2,7E0,1.12E2,2E1,2.95E2,1.1E1,2E0],"tree_param":{"num_deleted":"0","num_feature":"57","num_nodes":"15","size_leaf_vector":"0"}},{"base_weights":[2.8816688E-1,2.6125893E-1,3.178452E-1,1.546383E-1,2.663966E-1,3.0676135E-1,3.9965332E-1,8.421484E-2,1.7116152E-1,1.9938257E-1,2.7356812E-1,2.8609943E-1,3.3825988E-1,5.2270776E-1,3.6401093E-1],"categories":[],"categories_nodes":[],"categories_segments":[],"categories_sizes":[],"default_left":[1,1,1,1,1,1,1,0,0,0,0,0,0,0,0],"id":26,"left_children":[1,3,5,7,9,11,13,-1,-1,-1,-1,-1,-1,-1,-1],"loss_changes":[5.2747345E-1,1.8564034E-1,2.43824E-1,1.4319837E-2,1.4502144E-1,1.4588356E-1,7.372379E-2,0E0,0E0,0E0,0E0,0E0,0E0,0E0,0E0],"parents":[2147483647,0,0,1,1,2,2,3,3,4,4,5,5,6,6],"right_children":[2,4,6,8,10,12,14,-1,-1,-1,-1,-1,-1,-1,-1],"split_conditions":[1.2673667E3,2.4338507E2,3.1659157E0,2.1285818E2,1.3565586E0,2.6381348E2,6.105769E-1,2.526445E-3,5.1348456E-3,5.981477E-3,8.207044E-3,8.582983E-3,1.0147796E-2,1.5681233E-2,1.0920328E-2],"split_indices":[20,33,27,33,28,34,45,0,0,0,0,0,0,0,0],"split_type":[0,0,0,0,0,0,0,0,0,0,0,0,0,0,0],"sum_hessian":[7.12E2,3.76E2,3.36E2,1.8E1,3.58E2,2.98E2,3.8E1,4E0,1.4E1,3.6E1,3.22E2,1.83E2,1.15E2,7E0,3.1E1],"tree_param":{"num_deleted":"0","num_feature":"57","num_nodes":"15","size_leaf_vector":"0"}},{"base_weights":[2.7909437E-1,2.6109523E-1,3.2597384E-1,2.3789608E-1,2.8056967E-1,3.042965E-1,3.686052E-1,2.608511E-1,2.1130599E-1,1.924446E-1,2.8658998E-1,3.1093022E-1,1.9391483E-1,3.865045E-1,1.9017223E-1],"categories":[],"categories_nodes":[],"categories_segments":[],"categories_sizes":[],"default_left":[1,1,1,1,1,1,1,0,0,0,0,0,0,0,0],"id":27,"left_children":[1,3,5,7,9,11,13,-1,-1,-1,-1,-1,-1,-1,-1],"loss_changes":[5.308037E-1,1.8958282E-1,1.16270065E-1,1.1191177E-1,1.1328316E-1,6.2480927E-2,1.5647507E-1,0E0,0E0,0E0,0E0,0E0,0E0,0E0,0E0],"parents":[2147483647,0,0,1,1,2,2,3,3,4,4,5,5,6,6],"right_children":[2,4,6,8,10,12,14,-1,-1,-1,-1,-1,-1,-1,-1],"split_conditions":[2.9088435E0,1.5271653E1,3.3786187E0,5.746688E2,3.6631247E-1,1.7228351E0,6.0048725E5,7.825532E-3,6.3391794E-3,5.7733376E-3,8.597699E-3,9.327906E-3,5.817445E-3,1.1595135E-2,5.7051666E-3],"split_indices":[27,40,14,37,49,50,35,0,0,0,0,0,0,0,0],"split_type":[0,0,0,0,0,0,0,0,0,0,0,0,0,0,0],"sum_hessian":[6.79E2,4.93E2,1.86E2,2.28E2,2.65E2,1.26E2,6E1,1.2E2,1.08E2,1.8E1,2.47E2,1.18E2,8E0,5.4E1,6E0],"tree_param":{"num_deleted":"0","num_feature":"57","num_nodes":"15","size_leaf_vector":"0"}},{"base_weights":[2.725671E-1,2.4589081E-1,3.0133322E-1,1.9528072E-1,2.5924525E-1,2.7734834E-1,3.4198174E-1,2.137385E-1,1.3490018E-1,2.4964495E-1,3.3510262E-1,2.6403663E-1,3.227201E-1,5.869441E-1,3.3322975E-1],"categories":[],"categories_nodes":[],"categories_segments":[],"categories_sizes":[],"default_left":[1,1,1,1,1,1,1,0,0,0,0,0,0,0,0],"id":28,"left_children":[1,3,5,7,9,11,13,-1,-1,-1,-1,-1,-1,-1,-1],"loss_changes":[4.935913E-1,2.1901512E-1,2.7479553E-1,7.1956396E-2,1.653595E-1,8.4531784E-2,1.6054726E-1,0E0,0E0,0E0,0E0,0E0,0E0,0E0,0E0],"parents":[2147483647,0,0,1,1,2,2,3,3,4,4,5,5,6,6],"right_children":[2,4,6,8,10,12,14,-1,-1,-1,-1,-1,-1,-1,-1],"split_conditions":[1.7269919E0,5.2853912E1,5.857419E-3,5.5465094E5,3.1474103E2,6.5736304E2,6.05E5,6.412155E-3,4.0470054E-3,7.4893483E-3,1.0053079E-2,7.921099E-3,9.681603E-3,1.7608322E-2,9.996892E-3],"split_indices":[28,9,25,35,34,22,0,0,0,0,0,0,0,0,0],"split_type":[0,0,0,0,0,0,0,0,0,0,0,0,0,0,0],"sum_hessian":[6.91E2,3.61E2,3.3E2,7.7E1,2.84E2,2.1E2,1.2E2,5.8E1,1.9E1,2.54E2,3E1,1.65E2,4.5E1,3E0,1.17E2],"tree_param":{"num_deleted":"0","num_feature":"57","num_nodes":"15","size_leaf_vector":"0"}},{"base_weights":[2.6204288E-1,2.7661702E-1,2.2359997E-1,2.723605E-1,3.846132E-1,2.6666966E-1,2.0467627E-1,2.6625273E-1,3.2472053E-1,3.3039027E-1,5.0454706E-1,2.97849E-1,1.886743E-1,1.3249443E-1,2.1597677E-1],"categories":[],"categories_nodes":[],"categories_segments":[],"categories_sizes":[],"default_left":[1,1,1,1,1,1,1,0,0,0,0,0,0,0,0],"id":29,"left_children":[1,3,5,7,9,11,13,-1,-1,-1,-1,-1,-1,-1,-1],"loss_changes":[3.5202026E-1,1.7447662E-1,1.2797451E-1,1.0915756E-1,3.0456781E-2,1.0930109E-1,9.540272E-2,0E0,0E0,0E0,0E0,0E0,0E0,0E0,0E0],"parents":[2147483647,0,0,1,1,2,2,3,3,4,4,5,5,6,6],"right_children":[2,4,6,8,10,12,14,-1,-1,-1,-1,-1,-1,-1,-1],"split_conditions":[4.7596362E5,6.0768407E-3,5.081264E-1,3.1527612E0,3.19698E0,3.2570753E0,3.1639705E-3,7.987581E-3,9.7416155E-3,9.911708E-3,1.5136411E-2,8.93547E-3,5.660229E-3,3.974833E-3,6.479303E-3],"split_indices":[41,24,10,27,27,15,24,0,0,0,0,0,0,0,0],"split_type":[0,0,0,0,0,0,0,0,0,0,0,0,0,0,0],"sum_hessian":[6.83E2,4.93E2,1.9E2,4.76E2,1.7E1,5.6E1,1.34E2,4.29E2,4.7E1,1.3E1,4E0,3.9E1,1.7E1,1.9E1,1.15E2],"tree_param":{"num_deleted":"0","num_feature":"57","num_nodes":"15","size_leaf_vector":"0"}},{"base_weights":[2.5768256E-1,2.4242015E-1,2.940678E-1,2.3008575E-1,2.8307274E-1,5.1429343E-1,2.8850275E-1,2.3476852E-1,1.5195952E-1,2.582848E-2,2.8520662E-1,2.7069196E-1,3.7234303E-1],"categories":[],"categories_nodes":[],"categories_segments":[],"categories_sizes":[],"default_left":[1,1,1,1,1,0,1,0,0,0,0,0,0],"id":30,"left_children":[1,3,5,7,9,-1,11,-1,-1,-1,-1,-1,-1],"loss_changes":[3.6058426E-1,2.209053E-1,1.8134117E-1,1.250248E-1,5.9718132E-2,0E0,2.5497818E-1,0E0,0E0,0E0,0E0,0E0,0E0],"parents":[2147483647,0,0,1,1,2,2,3,3,4,4,6,6],"right_children":[2,4,6,8,10,-1,12,-1,-1,-1,-1,-1,-1],"split_conditions":[5.3961163E1,2.915887E0,6.515E5,3.4058824E0,1.5E0,1.5428803E-2,3.2899132E0,7.0430557E-3,4.558786E-3,7.748544E-4,8.556198E-3,8.120758E-3,1.117029E-2],"split_indices":[9,27,0,13,8,0,14,0,0,0,0,0,0],"split_type":[0,0,0,0,0,0,0,0,0,0,0,0,0],"sum_hessian":[7.13E2,5.05E2,2.08E2,3.9E2,1.15E2,4E0,2.04E2,3.67E2,2.3E1,1E0,1.14E2,1.7E2,3.4E1],"tree_param":{"num_deleted":"0","num_feature":"57","num_nodes":"13","size_leaf_vector":"0"}},{"base_weights":[2.4978901E-1,2.3348062E-1,2.895302E-1,1.8536635E-1,2.4244078E-1,2.676637E-1,3.4404787E-1,1.380885E-1,2.1318677E-1,1.9897583E-1,2.5511557E-1,4.6099356E-1,2.6327112E-1,3.5599035E-1,1.1917289E-1],"categories":[],"categories_nodes":[],"categories_segments":[],"categories_sizes":[],"default_left":[1,1,1,1,1,1,1,0,0,0,0,0,0,0,0],"id":31,"left_children":[1,3,5,7,9,11,13,-1,-1,-1,-1,-1,-1,-1,-1],"loss_changes":[4.0853882E-1,1.872654E-1,1.8820381E-1,8.853102E-2,1.9966698E-1,6.0329437E-2,1.2515116E-1,0E0,0E0,0E0,0E0,0E0,0E0,0E0,0E0],"parents":[2147483647,0,0,1,1,2,2,3,3,4,4,5,5,6,6],"right_children":[2,4,6,8,10,12,14,-1,-1,-1,-1,-1,-1,-1,-1],"split_conditions":[2.894436E0,3.8334167E-1,3.4500935E0,5.3393383E1,1.5099647E0,4.389151E-1,4.621883E5,4.1426546E-3,6.395603E-3,5.969275E-3,7.653467E-3,1.3829807E-2,7.898133E-3,1.0679711E-2,3.5751867E-3],"split_indices":[27,50,14,9,28,45,41,0,0,0,0,0,0,0,0],"split_type":[0,0,0,0,0,0,0,0,0,0,0,0,0,0,0],"sum_hessian":[6.82E2,4.86E2,1.96E2,7.8E1,4.08E2,1.42E2,5.4E1,3E1,4.8E1,9.4E1,3.14E2,2E0,1.4E2,5.1E1,3E0],"tree_param":{"num_deleted":"0","num_feature":"57","num_nodes":"15","size_leaf_vector":"0"}},{"base_weights":[2.422358E-1,2.120453E-1,2.7015784E-1,1.039867E-1,2.1588108E-1,2.508746E-1,3.0599114E-1,3.4537952E-2,1.0852408E-1,2.204439E-1,1.2953776E-1,3.7040207E-1,2.4309358E-1,1.6989902E-1,3.1221753E-1],"categories":[],"categories_nodes":[],"categories_segments":[],"categories_sizes":[],"default_left":[1,1,1,1,1,1,1,0,0,0,0,0,0,0,0],"id":32,"left_children":[1,3,5,7,9,11,13,-1,-1,-1,-1,-1,-1,-1,-1],"loss_changes":[5.576515E-1,1.2825012E-1,2.1002388E-1,2.064839E-3,1.13565445E-1,1.7493439E-1,7.812691E-2,0E0,0E0,0E0,0E0,0E0,0E0,0E0,0E0],"parents":[2147483647,0,0,1,1,2,2,3,3,4,4,5,5,6,6],"right_children":[2,4,6,8,10,12,14,-1,-1,-1,-1,-1,-1,-1,-1],"split_conditions":[2.6928701E0,2.9190988E-3,1.05E1,2.3021442E2,3.3291667E0,3.3723E5,1.6075242E0,1.0361385E-3,3.255722E-3,6.613317E-3,3.8861327E-3,1.1112061E-2,7.292807E-3,5.0969706E-3,9.366525E-3],"split_indices":[27,24,51,33,15,41,29,0,0,0,0,0,0,0,0],"split_type":[0,0,0,0,0,0,0,0,0,0,0,0,0,0,0],"sum_hessian":[6.95E2,3.36E2,3.59E2,1.2E1,3.24E2,2.36E2,1.23E2,1E0,1.1E1,3.07E2,1.7E1,1.3E1,2.23E2,6E0,1.17E2],"tree_param":{"num_deleted":"0","num_feature":"57","num_nodes":"15","size_leaf_vector":"0"}},{"base_weights":[2.3813525E-1,2.5868812E-1,2.0683655E-1,2.326685E-1,2.762249E-1,1.9590332E-1,2.7082726E-1,2.2311993E-1,2.8735524E-1,2.5034052E-1,2.9948428E-1,1.8666753E-1,2.4337624E-1,9.612877E-2,2.886555E-1],"categories":[],"categories_nodes":[],"categories_segments":[],"categories_sizes":[],"default_left":[1,1,1,1,1,1,1,0,0,0,0,0,0,0,0],"id":33,"left_children":[1,3,5,7,9,11,13,-1,-1,-1,-1,-1,-1,-1,-1],"loss_changes":[4.341545E-1,1.6430283E-1,1.7391586E-1,6.0108185E-2,1.15737915E-1,8.5362434E-2,1.1226559E-1,0E0,0E0,0E0,0E0,0E0,0E0,0E0,0E0],"parents":[2147483647,0,0,1,1,2,2,3,3,4,4,5,5,6,6],"right_children":[2,4,6,8,10,12,14,-1,-1,-1,-1,-1,-1,-1,-1],"split_conditions":[4.5741228E5,1.8336074E0,3.0742957E2,2.764964E2,1.7952633E0,2.9711971E0,5.65225E-1,6.693598E-3,8.620657E-3,7.5102155E-3,8.9845285E-3,5.600026E-3,7.3012873E-3,2.883863E-3,8.659665E-3],"split_indices":[41,29,34,38,28,27,46,0,0,0,0,0,0,0,0],"split_type":[0,0,0,0,0,0,0,0,0,0,0,0,0,0,0],"sum_hessian":[7.16E2,4.3E2,2.86E2,1.76E2,2.54E2,2.46E2,4E1,1.52E2,2.4E1,1.23E2,1.31E2,2.08E2,3.8E1,4E0,3.6E1],"tree_param":{"num_deleted":"0","num_feature":"57","num_nodes":"15","size_leaf_vector":"0"}},{"base_weights":[2.309794E-1,2.110658E-1,2.6698548E-1,2.032665E-1,2.6840463E-1,2.5673124E-1,3.4727103E-1,8.6972386E-2,2.0769024E-1,2.7727512E-1,1.0460731E-1,2.3150226E-1,2.868042E-1,2.584887E-1,4.363677E-1],"categories":[],"categories_nodes":[],"categories_segments":[],"categories_sizes":[],"default_left":[1,1,1,1,1,1,1,0,0,0,0,0,0,0,0],"id":34,"left_children":[1,3,5,7,9,11,13,-1,-1,-1,-1,-1,-1,-1,-1],"loss_changes":[4.719391E-1,1.7463493E-1,1.5835762E-1,1.9649124E-1,6.177783E-2,1.3409805E-1,1.5322256E-1,0E0,0E0,0E0,0E0,0E0,0E0,0E0,0E0],"parents":[2147483647,0,0,1,1,2,2,3,3,4,4,5,5,6,6],"right_children":[2,4,6,8,10,12,14,-1,-1,-1,-1,-1,-1,-1,-1],"split_conditions":[1.7814457E0,3.1625916E2,5.9443424E-3,2.2744122E2,5.231225E-3,6.322906E-1,2.0673656E0,2.6091714E-3,6.230707E-3,8.318253E-3,3.138219E-3,6.945068E-3,8.604126E-3,7.754661E-3,1.30910305E-2],"split_indices":[28,34,23,33,23,45,28,0,0,0,0,0,0,0,0],"split_type":[0,0,0,0,0,0,0,0,0,0,0,0,0,0,0],"sum_hessian":[6.97E2,4.51E2,2.46E2,3.99E2,5.2E1,2.2E2,2.6E1,1.5E1,3.84E2,4.9E1,3E0,1.22E2,9.8E1,1.4E1,1.2E1],"tree_param":{"num_deleted":"0","num_feature":"57","num_nodes":"15","size_leaf_vector":"0"}},{"base_weights":[2.2073989E-1,1.8878993E-1,2.4058236E-1,2.2491118E-1,1.7651542E-1,2.2251084E-1,2.8192815E-1,1.4976047E-1,2.4815924E-1,1.8662386E-1,1.29371E-1,2.0264173E-1,2.5148746E-1,2.0425588E-1,3.076945E-1],"categories":[],"categories_nodes":[],"categories_segments":[],"categories_sizes":[],"default_left":[1,1,1,1,1,1,1,0,0,0,0,0,0,0,0],"id":35,"left_children":[1,3,5,7,9,11,13,-1,-1,-1,-1,-1,-1,-1,-1],"loss_changes":[4.0616608E-1,9.6092224E-2,2.7908897E-1,9.41062E-2,8.204794E-2,1.4234829E-1,2.1774101E-1,0E0,0E0,0E0,0E0,0E0,0E0,0E0,0E0],"parents":[2147483647,0,0,1,1,2,2,3,3,4,4,5,5,6,6],"right_children":[2,4,6,8,10,12,14,-1,-1,-1,-1,-1,-1,-1,-1],"split_conditions":[2.627337E0,3.6221462E-1,4.402854E2,1.5312817E0,5.3028225E5,1.8251113E0,1.5881267E0,4.492814E-3,7.444777E-3,5.5987155E-3,3.88113E-3,6.0792514E-3,7.5446237E-3,6.1276765E-3,9.230834E-3],"split_indices":[27,10,33,28,35,28,28,0,0,0,0,0,0,0,0],"split_type":[0,0,0,0,0,0,0,0,0,0,0,0,0,0,0],"sum_hessian":[6.76E2,2.61E2,4.15E2,6.4E1,1.97E2,2.91E2,1.24E2,1.6E1,4.8E1,1.61E2,3.6E1,1.75E2,1.16E2,3.2E1,9.2E1],"tree_param":{"num_deleted":"0","num_feature":"57","num_nodes":"15","size_leaf_vector":"0"}},{"base_weights":[2.1151571E-1,1.888014E-1,2.3931149E-1,2.0178315E-1,1.572099E-1,2.1918531E-1,2.8176513E-1,1.2193195E-1,2.090752E-1,3.0759247E-2,1.6545422E-1,3.2602918E-1,2.1128717E-1,2.6098615E-1,3.524339E-1],"categories":[],"categories_nodes":[],"categories_segments":[],"categories_sizes":[],"default_left":[1,1,1,1,1,1,1,0,0,0,0,0,0,0,0],"id":36,"left_children":[1,3,5,7,9,11,13,-1,-1,-1,-1,-1,-1,-1,-1],"loss_changes":[4.0894318E-1,1.393671E-1,2.3015022E-1,1.4243126E-1,1.1473656E-1,1.4234734E-1,9.571266E-2,0E0,0E0,0E0,0E0,0E0,0E0,0E0,0E0],"parents":[2147483647,0,0,1,1,2,2,3,3,4,4,5,5,6,6],"right_children":[2,4,6,8,10,12,14,-1,-1,-1,-1,-1,-1,-1,-1],"split_conditions":[2.7277417E0,5.881546E2,4.4675433E2,2.12458E0,5.2144234E1,4.3851727E2,9.15704E-1,3.6579582E-3,6.272256E-3,9.227774E-4,4.9636266E-3,9.780875E-3,6.338615E-3,7.829584E-3,1.05730165E-2],"split_indices":[27,37,33,27,9,37,30,0,0,0,0,0,0,0,0],"split_type":[0,0,0,0,0,0,0,0,0,0,0,0,0,0,0],"sum_hessian":[6.83E2,3.78E2,3.05E2,2.66E2,1.12E2,2.09E2,9.6E1,2.3E1,2.43E2,7E0,1.05E2,1.3E1,1.96E2,7.6E1,2E1],"tree_param":{"num_deleted":"0","num_feature":"57","num_nodes":"15","size_leaf_vector":"0"}},{"base_weights":[2.0636567E-1,1.9152527E-1,2.4371074E-1,1.7789091E-1,2.3855194E-1,2.2870308E-1,3.1024346E-1,1.8965314E-1,1.4060618E-1,2.855052E-1,1.935397E-1,2.027095E-1,2.688604E-1,3.2949978E-1,1.4097774E-1],"categories":[],"categories_nodes":[],"categories_segments":[],"categories_sizes":[],"default_left":[1,1,1,1,1,1,1,0,0,0,0,0,0,0,0],"id":37,"left_children":[1,3,5,7,9,11,13,-1,-1,-1,-1,-1,-1,-1,-1],"loss_changes":[3.7098694E-1,3.0674362E-1,1.647234E-1,1.614294E-1,2.1225071E-1,1.45504E-1,9.248376E-2,0E0,0E0,0E0,0E0,0E0,0E0,0E0,0E0],"parents":[2147483647,0,0,1,1,2,2,3,3,4,4,5,5,6,6],"right_children":[2,4,6,8,10,12,14,-1,-1,-1,-1,-1,-1,-1,-1],"split_conditions":[5.3979515E1,6.376725E2,3.3712013E0,6.1163025E2,5.976875E2,2.5870435E2,6.743118E-1,5.689594E-3,4.2181853E-3,8.565156E-3,5.806191E-3,6.081285E-3,8.065811E-3,9.884994E-3,4.2293323E-3],"split_indices":[9,22,14,37,37,34,49,0,0,0,0,0,0,0,0],"split_type":[0,0,0,0,0,0,0,0,0,0,0,0,0,0,0],"sum_hessian":[7.11E2,5.11E2,2E2,3.98E2,1.13E2,1.65E2,3.5E1,3.01E2,9.7E1,5.4E1,5.9E1,1.02E2,6.3E1,3.1E1,4E0],"tree_param":{"num_deleted":"0","num_feature":"57","num_nodes":"15","size_leaf_vector":"0"}},{"base_weights":[2.0370978E-1,2.1756697E-1,1.7564063E-1,2.0927577E-1,2.6996997E-1,1.6189788E-1,2.3743534E-1,1.3566066E-1,2.1405998E-1,2.073908E-1,3.006147E-1,4.7994778E-2,1.6950604E-1,1.9201279E-1,2.862618E-1],"categories":[],"categories_nodes":[],"categories_segments":[],"categories_sizes":[],"default_left":[1,1,1,1,1,1,1,0,0,0,0,0,0,0,0],"id":38,"left_children":[1,3,5,7,9,11,13,-1,-1,-1,-1,-1,-1,-1,-1],"loss_changes":[2.4674797E-1,1.6965866E-1,1.7482853E-1,1.2477112E-1,8.4849834E-2,1.5928555E-1,6.233883E-2,0E0,0E0,0E0,0E0,0E0,0E0,0E0,0E0],"parents":[2147483647,0,0,1,1,2,2,3,3,4,4,5,5,6,6],"right_children":[2,4,6,8,10,12,14,-1,-1,-1,-1,-1,-1,-1,-1],"split_conditions":[6.0126245E2,3.223356E0,2.0763097E0,3.284046E-3,1.672821E5,5.216346E1,1.3763558E3,4.0698196E-3,6.4217993E-3,6.2217237E-3,9.018442E-3,1.4398433E-3,5.085181E-3,5.7603833E-3,8.587854E-3],"split_indices":[37,13,29,24,44,9,20,0,0,0,0,0,0,0,0],"split_type":[0,0,0,0,0,0,0,0,0,0,0,0,0,0,0],"sum_hessian":[6.83E2,4.55E2,2.28E2,3.95E2,6E1,1.88E2,4E1,2.5E1,3.7E2,2.1E1,3.9E1,1.2E1,1.76E2,2.2E1,1.8E1],"tree_param":{"num_deleted":"0","num_feature":"57","num_nodes":"15","size_leaf_vector":"0"}},{"base_weights":[1.9621387E-1,1.8320177E-1,2.305552E-1,1.9854815E-1,1.5778069E-1,2.3542471E-1,4.0933706E-2,1.05147235E-1,2.0259015E-1,1.364843E-1,1.918537E-1,1.7104992E-1,2.4788192E-1,6.0349565E-2,5.5647613E-3],"categories":[],"categories_nodes":[],"categories_segments":[],"categories_sizes":[],"default_left":[1,1,1,1,1,1,1,0,0,0,0,0,0,0,0],"id":39,"left_children":[1,3,5,7,9,11,13,-1,-1,-1,-1,-1,-1,-1,-1],"loss_changes":[2.9994583E-1,1.885643E-1,1.7569828E-1,1.1185646E-1,1.3167143E-1,1.3156796E-1,3.609036E-3,0E0,0E0,0E0,0E0,0E0,0E0,0E0,0E0],"parents":[2147483647,0,0,1,1,2,2,3,3,4,4,5,5,6,6],"right_children":[2,4,6,8,10,12,14,-1,-1,-1,-1,-1,-1,-1,-1],"split_conditions":[1.3816422E3,5.903896E2,6.977356E2,2.3182396E2,2.8859386E0,1.4794785E3,3.8365383E0,3.154417E-3,6.0777045E-3,4.094529E-3,5.7556108E-3,5.1314975E-3,7.4364576E-3,1.8104869E-3,1.6694283E-4],"split_indices":[20,37,37,33,27,19,13,0,0,0,0,0,0,0,0],"split_type":[0,0,0,0,0,0,0,0,0,0,0,0,0,0,0],"sum_hessian":[7.18E2,5.23E2,1.95E2,3.24E2,1.99E2,1.9E2,5E0,1.4E1,3.1E2,1.24E2,7.5E1,3.2E1,1.58E2,3E0,2E0],"tree_param":{"num_deleted":"0","num_feature":"57","num_nodes":"15","size_leaf_vector":"0"}},{"base_weights":[1.9431056E-1,1.7319568E-1,2.1698421E-1,1.68789E-1,2.9920718E-1,1.697196E-1,2.2432803E-1,1.2812498E-1,1.8106061E-1,3.1915644E-1,1.6355857E-1,2.445353E-1,1.4850336E-1,2.1076791E-1,2.5738242E-1],"categories":[],"categories_nodes":[],"categories_segments":[],"categories_sizes":[],"default_left":[1,1,1,1,1,1,1,0,0,0,0,0,0,0,0],"id":40,"left_children":[1,3,5,7,9,11,13,-1,-1,-1,-1,-1,-1,-1,-1],"loss_changes":[3.113079E-1,1.7437744E-1,9.568119E-2,1.6230583E-1,5.0196648E-3,5.565262E-2,1.003952E-1,0E0,0E0,0E0,0E0,0E0,0E0,0E0,0E0],"parents":[2147483647,0,0,1,1,2,2,3,3,4,4,5,5,6,6],"right_children":[2,4,6,8,10,12,14,-1,-1,-1,-1,-1,-1,-1,-1],"split_conditions":[1.720232E0,5.425039E2,1.2830283E3,4.7947145E-3,6.0342163E2,6.755E5,4.473776E2,3.8437494E-3,5.4318183E-3,9.574693E-3,4.9067573E-3,7.3360587E-3,4.4551007E-3,6.323037E-3,7.7214725E-3],"split_indices":[28,33,19,25,33,0,33,0,0,0,0,0,0,0,0],"split_type":[0,0,0,0,0,0,0,0,0,0,0,0,0,0,0],"sum_hessian":[6.89E2,3.59E2,3.3E2,3.48E2,1.1E1,4.6E1,2.84E2,8.2E1,2.66E2,9E0,2E0,9E0,3.7E1,2.04E2,8E1],"tree_param":{"num_deleted":"0","num_feature":"57","num_nodes":"15","size_leaf_vector":"0"}},{"base_weights":[1.8484466E-1,1.6555464E-1,2.0563264E-1,1.7959584E-1,1.4291304E-1,1.7626545E-1,2.2101851E-1,4.2725286E-1,1.7754114E-1,1.1960213E-1,1.9180687E-1,1.4137301E-1,1.9185832E-1,2.0785275E-1,2.6908258E-1],"categories":[],"categories_nodes":[],"categories_segments":[],"categories_sizes":[],"default_left":[1,1,1,1,1,1,1,0,0,0,0,0,0,0,0],"id":41,"left_children":[1,3,5,7,9,11,13,-1,-1,-1,-1,-1,-1,-1,-1],"loss_changes":[2.658844E-1,1.0431862E-1,1.3301754E-1,7.682133E-2,1.5208507E-1,5.091095E-2,1.1093521E-1,0E0,0E0,0E0,0E0,0E0,0E0,0E0,0E0],"parents":[2147483647,0,0,1,1,2,2,3,3,4,4,5,5,6,6],"right_children":[2,4,6,8,10,12,14,-1,-1,-1,-1,-1,-1,-1,-1],"split_conditions":[1.2701843E3,5.697549E2,2.197839E2,1.6430244E2,2.8150944E1,1.3582766E3,5.2931174E-3,1.2817586E-2,5.326234E-3,3.5880639E-3,5.754206E-3,4.2411904E-3,5.7557495E-3,6.2355823E-3,8.072477E-3],"split_indices":[20,37,34,38,54,20,23,0,0,0,0,0,0,0,0],"split_type":[0,0,0,0,0,0,0,0,0,0,0,0,0,0,0],"sum_hessian":[7.05E2,3.68E2,3.37E2,2.25E2,1.43E2,1.18E2,2.19E2,1E0,2.24E2,9.8E1,4.5E1,3.8E1,8E1,1.74E2,4.5E1],"tree_param":{"num_deleted":"0","num_feature":"57","num_nodes":"15","size_leaf_vector":"0"}},{"base_weights":[1.7771512E-1,1.693106E-1,2.3521264E-1,1.488816E-1,1.8481332E-1,2.1764727E-1,3.2083356E-1,1.19720034E-1,1.6154493E-1,1.5625854E-1,1.9890085E-1,1.8574747E-1,2.6099703E-1,1.1680905E-1,3.3248317E-1],"categories":[],"categories_nodes":[],"categories_segments":[],"categories_sizes":[],"default_left":[1,1,1,1,1,1,1,0,0,0,0,0,0,0,0],"id":42,"left_children":[1,3,5,7,9,11,13,-1,-1,-1,-1,-1,-1,-1,-1],"loss_changes":[3.0893135E-1,1.7484093E-1,9.367466E-2,8.615875E-2,1.198225E-1,7.6016665E-2,1.2668371E-2,0E0,0E0,0E0,0E0,0E0,0E0,0E0,0E0],"parents":[2147483647,0,0,1,1,2,2,3,3,4,4,5,5,6,6],"right_children":[2,4,6,8,10,12,14,-1,-1,-1,-1,-1,-1,-1,-1],"split_conditions":[1.487837E3,2.63562E0,7.033001E2,5.309353E1,5.4863994E-3,2.5096454E2,3.5847887E-1,3.591601E-3,4.846348E-3,4.687756E-3,5.967025E-3,5.5724243E-3,7.829911E-3,3.5042714E-3,9.974495E-3],"split_indices":[20,27,22,9,25,38,49,0,0,0,0,0,0,0,0],"split_type":[0,0,0,0,0,0,0,0,0,0,0,0,0,0,0],"sum_hessian":[6.8E2,5.95E2,8.5E1,2.59E2,3.36E2,7.2E1,1.3E1,8E1,1.79E2,1.13E2,2.23E2,4.3E1,2.9E1,1E0,1.2E1],"tree_param":{"num_deleted":"0","num_feature":"57","num_nodes":"15","size_leaf_vector":"0"}},{"base_weights":[1.7358099E-1,1.591613E-1,2.02641E-1,1.78802E-1,1.4127652E-1,1.9447684E-1,2.8033563E-1,1.5395465E-1,1.9749323E-1,1.2348296E-1,1.913031E-1,1.9995053E-1,8.22587E-2,2.2905095E-1,3.7317565E-1],"categories":[],"categories_nodes":[],"categories_segments":[],"categories_sizes":[],"default_left":[1,1,1,1,1,1,1,0,0,0,0,0,0,0,0],"id":43,"left_children":[1,3,5,7,9,11,13,-1,-1,-1,-1,-1,-1,-1,-1],"loss_changes":[2.7363586E-1,1.5053463E-1,1.17046356E-1,8.673954E-2,2.0672083E-1,1.19232655E-1,5.4867864E-2,0E0,0E0,0E0,0E0,0E0,0E0,0E0,0E0],"parents":[2147483647,0,0,1,1,2,2,3,3,4,4,5,5,6,6],"right_children":[2,4,6,8,10,12,14,-1,-1,-1,-1,-1,-1,-1,-1],"split_conditions":[1.3506864E3,5.46025E2,5.8338437E-3,3.034597E2,5.061064E-3,6.9693555E2,2.0999134E0,4.6186396E-3,5.9247967E-3,3.7044887E-3,5.739093E-3,5.998516E-3,2.467761E-3,6.8715285E-3,1.1195269E-2],"split_indices":[20,37,23,33,23,37,28,0,0,0,0,0,0,0,0],"split_type":[0,0,0,0,0,0,0,0,0,0,0,0,0,0,0],"sum_hessian":[6.91E2,4.64E2,2.27E2,2.19E2,2.45E2,2.07E2,2E1,9.6E1,1.23E2,1.82E2,6.3E1,1.97E2,1E1,1.4E1,6E0],"tree_param":{"num_deleted":"0","num_feature":"57","num_nodes":"15","size_leaf_vector":"0"}},{"base_weights":[1.6990168E-1,1.5284379E-1,1.9034576E-1,1.4145051E-1,1.733759E-1,1.7914386E-1,2.5490826E-1,2.3705061E-1,1.3826779E-1,1.40764E-1,1.8698134E-1,1.6985267E-1,2.5701356E-1,2.8359523E-1,1.74281E-1],"categories":[],"categories_nodes":[],"categories_segments":[],"categories_sizes":[],"default_left":[1,1,1,1,1,1,1,0,0,0,0,0,0,0,0],"id":44,"left_children":[1,3,5,7,9,11,13,-1,-1,-1,-1,-1,-1,-1,-1],"loss_changes":[2.3427391E-1,7.932091E-2,2.104063E-1,6.104803E-2,4.7848225E-2,1.782217E-1,8.283973E-2,0E0,0E0,0E0,0E0,0E0,0E0,0E0,0E0],"parents":[2147483647,0,0,1,1,2,2,3,3,4,4,5,5,6,6],"right_children":[2,4,6,8,10,12,14,-1,-1,-1,-1,-1,-1,-1,-1],"split_conditions":[4.130692E-3,1.8420262E0,3.1663966E0,2.5E0,8.1318886E1,8.795E5,1.6014669E0,7.111518E-3,4.1480334E-3,4.2229197E-3,5.60944E-3,5.09558E-3,7.7104066E-3,8.507857E-3,5.22843E-3],"split_indices":[24,29,27,8,39,0,18,0,0,0,0,0,0,0,0],"split_type":[0,0,0,0,0,0,0,0,0,0,0,0,0,0,0],"sum_hessian":[7.13E2,3.91E2,3.22E2,2.54E2,1.37E2,2.76E2,4.6E1,7E0,2.47E2,4.2E1,9.5E1,2.48E2,2.8E1,3.3E1,1.3E1],"tree_param":{"num_deleted":"0","num_feature":"57","num_nodes":"15","size_leaf_vector":"0"}},{"base_weights":[1.6580674E-1,1.4857128E-1,1.8911588E-1,2.3833127E-1,1.4315373E-1,1.7243744E-1,2.2366567E-1,3.3026978E-1,2.0952646E-1,8.4241174E-2,1.4763749E-1,1.4465632E-1,1.933998E-1,1.6158362E-1,2.4572814E-1],"categories":[],"categories_nodes":[],"categories_segments":[],"categories_sizes":[],"default_left":[1,1,1,0,1,1,1,0,0,0,0,0,0,0,0],"id":45,"left_children":[1,3,5,7,9,11,13,-1,-1,-1,-1,-1,-1,-1,-1],"loss_changes":[2.6978302E-1,1.8158627E-1,1.5272236E-1,2.498591E-2,9.587526E-2,1.0452175E-1,1.109519E-1,0E0,0E0,0E0,0E0,0E0,0E0,0E0,0E0],"parents":[2147483647,0,0,1,1,2,2,3,3,4,4,5,5,6,6],"right_children":[2,4,6,8,10,12,14,-1,-1,-1,-1,-1,-1,-1,-1],"split_conditions":[1.7410438E0,2.5E0,5.391652E1,1.3130814E5,5.2184387E1,2.397038E2,4.190257E-3,9.908093E-3,6.2857936E-3,2.527235E-3,4.4291243E-3,4.3396894E-3,5.801994E-3,4.8475084E-3,7.371844E-3],"split_indices":[28,8,9,44,9,34,24,0,0,0,0,0,0,0,0],"split_type":[0,0,0,0,0,0,0,0,0,0,0,0,0,0,0],"sum_hessian":[7.06E2,4.08E2,2.98E2,2.2E1,3.86E2,2.03E2,9.5E1,4E0,1.8E1,2.8E1,3.58E2,8.9E1,1.14E2,2.6E1,6.9E1],"tree_param":{"num_deleted":"0","num_feature":"57","num_nodes":"15","size_leaf_vector":"0"}},{"base_weights":[1.6270554E-1,1.2063694E-1,1.7595984E-1,1.4350894E-1,8.482E-2,1.4612517E-1,1.8847269E-1,1.3319731E-1,2.0078571E-1,6.680675E-2,1.2096851E-1,1.2500207E-1,1.81774E-1,1.4681996E-1,1.985141E-1],"categories":[],"categories_nodes":[],"categories_segments":[],"categories_sizes":[],"default_left":[1,1,1,1,1,1,1,0,0,0,0,0,0,0,0],"id":46,"left_children":[1,3,5,7,9,11,13,-1,-1,-1,-1,-1,-1,-1,-1],"loss_changes":[3.755169E-1,1.311307E-1,1.8240929E-1,4.6575546E-2,3.9260864E-2,1.0723853E-1,1.3955307E-1,0E0,0E0,0E0,0E0,0E0,0E0,0E0,0E0],"parents":[2147483647,0,0,1,1,2,2,3,3,4,4,5,5,6,6],"right_children":[2,4,6,8,10,12,14,-1,-1,-1,-1,-1,-1,-1,-1],"split_conditions":[2.4803932E0,5.396859E2,1.5950494E0,5.0022372E2,2.7994647E2,1.900665E0,2.0136092E2,3.995919E-3,6.0235714E-3,2.0042025E-3,3.6290553E-3,3.750062E-3,5.45322E-3,4.404599E-3,5.9554228E-3],"split_indices":[27,37,28,33,38,29,34,0,0,0,0,0,0,0,0],"split_type":[0,0,0,0,0,0,0,0,0,0,0,0,0,0,0],"sum_hessian":[6.92E2,1.67E2,5.25E2,1.01E2,6.6E1,1.57E2,3.68E2,8.7E1,1.4E1,4.5E1,2.1E1,1E2,5.7E1,7.3E1,2.95E2],"tree_param":{"num_deleted":"0","num_feature":"57","num_nodes":"15","size_leaf_vector":"0"}},{"base_weights":[1.5265162E-1,1.3711995E-1,1.7729399E-1,1.3308822E-1,2.2892709E-1,1.8391271E-1,1.1035577E-1,1.1514313E-1,1.5029094E-1,1.1498746E-1,2.584282E-1,1.7737761E-1,2.8916585E-1,1.4242512E-1,6.512244E-2],"categories":[],"categories_nodes":[],"categories_segments":[],"categories_sizes":[],"default_left":[1,1,1,1,1,1,1,0,0,0,0,0,0,0,0],"id":47,"left_children":[1,3,5,7,9,11,13,-1,-1,-1,-1,-1,-1,-1,-1],"loss_changes":[2.563343E-1,1.4485168E-1,1.09251976E-1,1.19614124E-1,4.396552E-2,1.425314E-1,3.2352865E-2,0E0,0E0,0E0,0E0,0E0,0E0,0E0,0E0],"parents":[2147483647,0,0,1,1,2,2,3,3,4,4,5,5,6,6],"right_children":[2,4,6,8,10,12,14,-1,-1,-1,-1,-1,-1,-1,-1],"split_conditions":[2.5892334E2,6.1043454E-3,1.5463313E0,1.5189384E1,3.0552306E0,3.1640778E0,1.7025774E0,3.4542938E-3,4.508728E-3,3.4496237E-3,7.7528455E-3,5.321328E-3,8.6749755E-3,4.2727534E-3,1.953673E-3],"split_indices":[34,23,50,40,14,27,12,0,0,0,0,0,0,0,0],"split_type":[0,0,0,0,0,0,0,0,0,0,0,0,0,0,0],"sum_hessian":[7.01E2,4.32E2,2.69E2,4.15E2,1.7E1,2.44E2,2.5E1,2.05E2,2.1E2,4E0,1.3E1,2.31E2,1.3E1,1.4E1,1.1E1],"tree_param":{"num_deleted":"0","num_feature":"57","num_nodes":"15","size_leaf_vector":"0"}},{"base_weights":[1.4526814E-1,1.21079504E-1,1.665206E-1,1.5419473E-1,1.105139E-1,1.942848E-1,1.464652E-1,1.6382568E-1,6.751035E-2,1.6667782E-1,1.0319233E-1,1.8804021E-1,3.7599325E-1,7.022318E-3,1.5261495E-1],"categories":[],"categories_nodes":[],"categories_segments":[],"categories_sizes":[],"default_left":[1,1,1,1,1,1,1,0,0,0,0,0,0,0,0],"id":48,"left_children":[1,3,5,7,9,11,13,-1,-1,-1,-1,-1,-1,-1,-1],"loss_changes":[3.4128475E-1,1.0396671E-1,1.8762016E-1,5.8336258E-2,9.2351675E-2,1.3541985E-1,1.816907E-1,0E0,0E0,0E0,0E0,0E0,0E0,0E0,0E0],"parents":[2147483647,0,0,1,1,2,2,3,3,4,4,5,5,6,6],"right_children":[2,4,6,8,10,12,14,-1,-1,-1,-1,-1,-1,-1,-1],"split_conditions":[2.691055E0,1.6125643E-1,5.646041E2,5.322946E5,1.7601306E0,3.2884328E0,5.1975E1,4.9147704E-3,2.0253104E-3,5.0003342E-3,3.0957698E-3,5.641206E-3,1.1279797E-2,2.1066953E-4,4.5784484E-3],"split_indices":[27,10,37,41,13,27,9,0,0,0,0,0,0,0,0],"split_type":[0,0,0,0,0,0,0,0,0,0,0,0,0,0,0],"sum_hessian":[6.83E2,3.21E2,3.62E2,7.6E1,2.45E2,1.5E2,2.12E2,6.8E1,8E0,2.7E1,2.18E2,1.46E2,4E0,9E0,2.03E2],"tree_param":{"num_deleted":"0","num_feature":"57","num_nodes":"15","size_leaf_vector":"0"}},{"base_weights":[1.4209607E-1,1.3247441E-1,1.6846488E-1,1.2724389E-1,2.1131994E-1,1.5637091E-1,2.0642474E-1,1.06200695E-1,1.4351499E-1,4.762588E-2,2.2771536E-1,1.4864282E-1,2.252842E-1,6.360645E-2,2.2008221E-1],"categories":[],"categories_nodes":[],"categories_segments":[],"categories_sizes":[],"default_left":[1,1,1,1,1,1,1,0,0,0,0,0,0,0,0],"id":49,"left_children":[1,3,5,7,9,11,13,-1,-1,-1,-1,-1,-1,-1,-1],"loss_changes":[1.6758156E-1,2.0038605E-1,6.947994E-2,1.5929699E-1,7.911813E-2,5.9680223E-2,7.784891E-2,0E0,0E0,0E0,0E0,0E0,0E0,0E0,0E0],"parents":[2147483647,0,0,1,1,2,2,3,3,4,4,5,5,6,6],"right_children":[2,4,6,8,10,12,14,-1,-1,-1,-1,-1,-1,-1,-1],"split_conditions":[5.3990566E1,5.9156204E-3,1.8778528E5,2.2434981E5,6.9218445E0,1.541638E3,3.711852E5,3.1860208E-3,4.30545E-3,1.4287764E-3,6.8314606E-3,4.4592847E-3,6.758526E-3,1.9081935E-3,6.602466E-3],"split_indices":[9,23,42,36,40,20,41,0,0,0,0,0,0,0,0],"split_type":[0,0,0,0,0,0,0,0,0,0,0,0,0,0,0],"sum_hessian":[7.04E2,5.18E2,1.86E2,4.87E2,3.1E1,1.43E2,4.3E1,2.14E2,2.73E2,3E0,2.8E1,1.3E2,1.3E1,4E0,3.9E1],"tree_param":{"num_deleted":"0","num_feature":"57","num_nodes":"15","size_leaf_vector":"0"}},{"base_weights":[1.4508897E-1,1.3923511E-1,2.0522991E-1,1.5088615E-1,1.1024737E-1,1.1690745E-1,2.3694481E-1,1.439705E-1,1.9870521E-1,1.0255181E-1,1.9332817E-1,1.6962709E-1,1.4641368E-2,9.132194E-3,2.4731399E-1],"categories":[],"categories_nodes":[],"categories_segments":[],"categories_sizes":[],"default_left":[1,1,1,1,1,1,1,0,0,0,0,0,0,0,0],"id":50,"left_children":[1,3,5,7,9,11,13,-1,-1,-1,-1,-1,-1,-1,-1],"loss_changes":[2.3796177E-1,2.1273232E-1,1.6122079E-1,1.3963604E-1,1.1124444E-1,9.310827E-2,1.0635209E-1,0E0,0E0,0E0,0E0,0E0,0E0,0E0,0E0],"parents":[2147483647,0,0,1,1,2,2,3,3,4,4,5,5,6,6],"right_children":[2,4,6,8,10,12,14,-1,-1,-1,-1,-1,-1,-1,-1],"split_conditions":[1.5735676E3,4.733324E5,1.0278875E3,6.62298E2,2.1928345E5,1.0794117E0,6.840032E0,4.319115E-3,5.961156E-3,3.0765543E-3,5.799845E-3,5.0888127E-3,4.3924103E-4,2.7396582E-4,7.4194195E-3],"split_indices":[20,41,21,22,42,17,40,0,0,0,0,0,0,0,0],"split_type":[0,0,0,0,0,0,0,0,0,0,0,0,0,0,0],"sum_hessian":[7.16E2,6.54E2,6.2E1,4.65E2,1.89E2,1.7E1,4.5E1,4.08E2,5.7E1,1.74E2,1.5E1,1.1E1,6E0,2E0,4.3E1],"tree_param":{"num_deleted":"0","num_feature":"57","num_nodes":"15","size_leaf_vector":"0"}},{"base_weights":[1.3584548E-1,1.2432685E-1,1.6415502E-1,1.1923564E-1,1.9473588E-1,8.411635E-3,1.6803728E-1,1.002082E-1,1.3907406E-1,-3.3498365E-2,2.0227383E-1,-2.5865981E-2,5.471797E-2,3.6286682E-1,1.6514567E-1],"categories":[],"categories_nodes":[],"categories_segments":[],"categories_sizes":[],"default_left":[1,1,1,1,1,1,1,0,0,0,0,0,0,0,0],"id":51,"left_children":[1,3,5,7,9,11,13,-1,-1,-1,-1,-1,-1,-1,-1],"loss_changes":[2.2213268E-1,1.7067051E-1,1.22941494E-1,1.7252111E-1,6.1021924E-2,9.437656E-3,8.242941E-2,0E0,0E0,0E0,0E0,0E0,0E0,0E0,0E0],"parents":[2147483647,0,0,1,1,2,2,3,3,4,4,5,5,6,6],"right_children":[2,4,6,8,10,12,14,-1,-1,-1,-1,-1,-1,-1,-1],"split_conditions":[5.395903E1,5.933121E-3,5.698539E-1,1.5191317E1,1.5E0,2.1833334E0,6.515E5,3.006246E-3,4.1722218E-3,-1.004951E-3,6.068215E-3,-7.759794E-4,1.641539E-3,1.0886004E-2,4.9543697E-3],"split_indices":[9,23,46,40,8,13,0,0,0,0,0,0,0,0,0],"split_type":[0,0,0,0,0,0,0,0,0,0,0,0,0,0,0],"sum_hessian":[7.12E2,5.08E2,2.04E2,4.75E2,3.3E1,5E0,1.99E2,2.44E2,2.31E2,1E0,3.2E1,3E0,2E0,2E0,1.97E2],"tree_param":{"num_deleted":"0","num_feature":"57","num_nodes":"15","size_leaf_vector":"0"}},{"base_weights":[1.3367316E-1,1.2752618E-1,2.0237261E-1,1.3584608E-1,9.638387E-2,4.0683247E-2,2.1738414E-1,1.0978805E-1,1.4745227E-1,8.664394E-2,2.0102637E-1,7.5317755E-2,-1.5941715E-2,1.4587376E-1,2.5914633E-1],"categories":[],"categories_nodes":[],"categories_segments":[],"categories_sizes":[],"default_left":[1,1,0,1,1,1,1,0,0,0,0,0,0,0,0],"id":52,"left_children":[1,3,5,7,9,11,13,-1,-1,-1,-1,-1,-1,-1,-1],"loss_changes":[2.8713608E-1,1.6277504E-1,1.3514233E-1,1.4750862E-1,1.3347101E-1,1.1386826E-2,1.3788629E-1,0E0,0E0,0E0,0E0,0E0,0E0,0E0,0E0],"parents":[2147483647,0,0,1,1,2,2,3,3,4,4,5,5,6,6],"right_children":[2,4,6,8,10,12,14,-1,-1,-1,-1,-1,-1,-1,-1],"split_conditions":[3.1663966E0,5.566495E5,1.5869016E5,2.457254E0,1.6109248E3,3.5683866E0,1.7476928E0,3.2936416E-3,4.423568E-3,2.5993183E-3,6.030791E-3,2.2595327E-3,-4.7825143E-4,4.3762126E-3,7.77439E-3],"split_indices":[27,35,44,27,20,10,28,0,0,0,0,0,0,0,0],"split_type":[0,0,0,0,0,0,0,0,0,0,0,0,0,0,0],"sum_hessian":[7.1E2,6.53E2,5.7E1,5.14E2,1.39E2,5E0,5.2E1,1.6E2,3.54E2,1.28E2,1.1E1,3E0,2E0,2E1,3.2E1],"tree_param":{"num_deleted":"0","num_feature":"57","num_nodes":"15","size_leaf_vector":"0"}},{"base_weights":[1.2751628E-1,1.2377809E-1,1.8774806E-1,1.4827445E-1,1.1372556E-1,6.991808E-2,2.0780839E-1,1.4154145E-1,2.3741347E-1,1.08678184E-1,1.6268314E-1,2.7431487E-3,9.946881E-2,2.2423202E-1,1.2233853E-1],"categories":[],"categories_nodes":[],"categories_segments":[],"categories_sizes":[],"default_left":[1,1,1,1,0,1,1,0,0,0,0,0,0,0,0],"id":53,"left_children":[1,3,5,7,9,11,13,-1,-1,-1,-1,-1,-1,-1,-1],"loss_changes":[1.4430332E-1,1.5249348E-1,8.610153E-2,9.633064E-2,1.06188774E-1,1.2766518E-2,3.3308744E-2,0E0,0E0,0E0,0E0,0E0,0E0,0E0,0E0],"parents":[2147483647,0,0,1,1,2,2,3,3,4,4,5,5,6,6],"right_children":[2,4,6,8,10,12,14,-1,-1,-1,-1,-1,-1,-1,-1],"split_conditions":[3.8659277E0,4.2014462E-1,6.0564E4,3.3656702E2,2.7361855E-1,4.476138E0,1.0034838E0,4.2462433E-3,7.122404E-3,3.2603454E-3,4.8804944E-3,8.229446E-5,2.9840644E-3,6.72696E-3,3.670156E-3],"split_indices":[14,10,43,34,47,10,50,0,0,0,0,0,0,0,0],"split_type":[0,0,0,0,0,0,0,0,0,0,0,0,0,0,0],"sum_hessian":[6.92E2,6.53E2,3.9E1,1.88E2,4.65E2,6E0,3.3E1,1.76E2,1.2E1,4.23E2,4.2E1,2E0,4E0,2.7E1,6E0],"tree_param":{"num_deleted":"0","num_feature":"57","num_nodes":"15","size_leaf_vector":"0"}},{"base_weights":[1.2660816E-1,1.21605E-1,1.8461259E-1,4.6884287E-2,1.2508747E-1,2.1364704E-1,9.71504E-2,7.781924E-2,-1.279894E-2,1.113206E-1,1.4326687E-1,1.5868428E-1,2.747194E-1,1.4882E-1,-3.4206495E-2],"categories":[],"categories_nodes":[],"categories_segments":[],"categories_sizes":[],"default_left":[1,1,1,1,1,1,1,0,0,0,0,0,0,0,0],"id":54,"left_children":[1,3,5,7,9,11,13,-1,-1,-1,-1,-1,-1,-1,-1],"loss_changes":[1.9148445E-1,1.6477394E-1,1.2802029E-1,5.4963797E-2,1.4606953E-1,1.1414969E-1,1.0095911E-1,0E0,0E0,0E0,0E0,0E0,0E0,0E0,0E0],"parents":[2147483647,0,0,1,1,2,2,3,3,4,4,5,5,6,6],"right_children":[2,4,6,8,10,12,14,-1,-1,-1,-1,-1,-1,-1,-1],"split_conditions":[3.1660733E0,2.1113172E0,8.335E5,7.0889624E2,2.5598253E2,2.4011612E2,6.5209033E2,2.3345773E-3,-3.8396817E-4,3.339618E-3,4.298006E-3,4.7605284E-3,8.241582E-3,4.4646E-3,-1.0261948E-3],"split_indices":[27,27,0,21,34,34,37,0,0,0,0,0,0,0,0],"split_type":[0,0,0,0,0,0,0,0,0,0,0,0,0,0,0],"sum_hessian":[6.98E2,6.44E2,5.4E1,2.9E1,6.15E2,4E1,1.4E1,1.9E1,1E1,3.52E2,2.63E2,2.2E1,1.8E1,1E1,4E0],"tree_param":{"num_deleted":"0","num_feature":"57","num_nodes":"15","size_leaf_vector":"0"}},{"base_weights":[1.19372435E-1,1.0965561E-1,1.49814E-1,1.2918341E-1,8.393689E-2,1.6010678E-1,9.562621E-2,1.0561194E-1,1.4868087E-1,7.735939E-2,1.4814591E-1,1.0799865E-1,1.7805646E-1,-9.372928E-3,1.1916764E-1],"categories":[],"categories_nodes":[],"categories_segments":[],"categories_sizes":[],"default_left":[1,1,1,1,1,1,1,0,0,0,0,0,0,0,0],"id":55,"left_children":[1,3,5,7,9,11,13,-1,-1,-1,-1,-1,-1,-1,-1],"loss_changes":[1.9455338E-1,2.5649166E-1,8.409357E-2,1.2795544E-1,8.992863E-2,1.1899209E-1,6.853381E-2,0E0,0E0,0E0,0E0,0E0,0E0,0E0,0E0],"parents":[2147483647,0,0,1,1,2,2,3,3,4,4,5,5,6,6],"right_children":[2,4,6,8,10,12,14,-1,-1,-1,-1,-1,-1,-1,-1],"split_conditions":[1.9335E0,5.632628E2,1.4291022E0,3.0770795E2,3.1560924E0,5E0,8.005975E-1,3.1683582E-3,4.460426E-3,2.3207818E-3,4.4443775E-3,3.2399592E-3,5.3416938E-3,-2.8118785E-4,3.575029E-3],"split_indices":[16,37,11,33,27,4,46,0,0,0,0,0,0,0,0],"split_type":[0,0,0,0,0,0,0,0,0,0,0,0,0,0,0],"sum_hessian":[6.85E2,5.21E2,1.64E2,2.95E2,2.26E2,1.37E2,2.7E1,1.35E2,1.6E2,2.06E2,2E1,3.6E1,1.01E2,5E0,2.2E1],"tree_param":{"num_deleted":"0","num_feature":"57","num_nodes":"15","size_leaf_vector":"0"}},{"base_weights":[1.13383405E-1,1.0132911E-1,1.3501818E-1,4.870497E-2,1.0900427E-1,1.21600084E-1,1.8303965E-1,6.314237E-2,-2.0301353E-2,1.4211556E-1,9.9953555E-2,9.957462E-2,1.5206806E-1,8.424164E-2,2.0207474E-1],"categories":[],"categories_nodes":[],"categories_segments":[],"categories_sizes":[],"default_left":[1,1,1,1,1,1,1,0,0,0,0,0,0,0,0],"id":56,"left_children":[1,3,5,7,9,11,13,-1,-1,-1,-1,-1,-1,-1,-1],"loss_changes":[1.7610455E-1,1.801095E-1,1.4963865E-1,5.8922842E-2,1.11121655E-1,1.2429452E-1,9.210205E-2,0E0,0E0,0E0,0E0,0E0,0E0,0E0,0E0],"parents":[2147483647,0,0,1,1,2,2,3,3,4,4,5,5,6,6],"right_children":[2,4,6,8,10,12,14,-1,-1,-1,-1,-1,-1,-1,-1],"split_conditions":[2.8267088E0,3.8334167E-1,4.928493E-3,5.6099016E-3,6.9337524E-2,4.2918997E2,9.079828E4,1.894271E-3,-6.090406E-4,4.2634667E-3,2.9986065E-3,2.9872386E-3,4.5620417E-3,2.5272493E-3,6.0622417E-3],"split_indices":[27,50,24,25,10,33,43,0,0,0,0,0,0,0,0],"split_type":[0,0,0,0,0,0,0,0,0,0,0,0,0,0,0],"sum_hessian":[7.01E2,4.52E2,2.49E2,5.8E1,3.94E2,1.96E2,5.3E1,4.8E1,1E1,8.3E1,3.11E2,1.15E2,8.1E1,9E0,4.4E1],"tree_param":{"num_deleted":"0","num_feature":"57","num_nodes":"15","size_leaf_vector":"0"}},{"base_weights":[1.0701321E-1,1.1980515E-1,8.3297655E-2,1.04718186E-1,1.401387E-1,8.640432E-2,-6.57695E-2,1.01258785E-1,2.0579962E-1,1.3256063E-1,2.2533269E-1,9.304782E-2,2.3222502E-2,-3.7614107E-2,-9.203315E-2],"categories":[],"categories_nodes":[],"categories_segments":[],"categories_sizes":[],"default_left":[1,1,1,1,1,1,1,0,0,0,0,0,0,0,0],"id":57,"left_children":[1,3,5,7,9,11,13,-1,-1,-1,-1,-1,-1,-1,-1],"loss_changes":[2.1479988E-1,1.3669205E-1,1.21163964E-1,8.451891E-2,1.1321759E-1,1.0406649E-1,2.336176E-3,0E0,0E0,0E0,0E0,0E0,0E0,0E0,0E0],"parents":[2147483647,0,0,1,1,2,2,3,3,4,4,5,5,6,6],"right_children":[2,4,6,8,10,12,14,-1,-1,-1,-1,-1,-1,-1,-1],"split_conditions":[4.6807738E5,2.5609882E2,3.4891858E0,6.1197067E-3,1.9753489E3,7.256156E0,3.9320996E0,3.0377635E-3,6.173989E-3,3.9768186E-3,6.7599807E-3,2.7914345E-3,6.9667504E-4,-1.1284231E-3,-2.7609945E-3],"split_indices":[41,34,14,24,19,10,10,0,0,0,0,0,0,0,0],"split_type":[0,0,0,0,0,0,0,0,0,0,0,0,0,0,0],"sum_hessian":[7.24E2,4.69E2,2.55E2,2.71E2,1.98E2,2.5E2,5E0,2.63E2,8E0,1.83E2,1.5E1,2.26E2,2.4E1,3E0,2E0],"tree_param":{"num_deleted":"0","num_feature":"57","num_nodes":"15","size_leaf_vector":"0"}},{"base_weights":[1.0729844E-1,9.165654E-2,1.23186804E-1,4.2977787E-5,9.425545E-2,1.3443044E-1,8.715749E-2,7.251775E-2,-2.127566E-2,9.198271E-2,1.8082394E-1,1.2923059E-1,2.4501699E-1,1.6556871E-1,7.6850496E-2],"categories":[],"categories_nodes":[],"categories_segments":[],"categories_sizes":[],"default_left":[1,1,1,1,0,1,0,0,0,0,0,0,0,0,0],"id":58,"left_children":[1,3,5,7,9,11,13,-1,-1,-1,-1,-1,-1,-1,-1],"loss_changes":[1.721735E-1,8.6307526E-2,1.3734436E-1,1.69946E-2,6.1037302E-2,1.3856506E-1,6.27377E-2,0E0,0E0,0E0,0E0,0E0,0E0,0E0,0E0],"parents":[2147483647,0,0,1,1,2,2,3,3,4,4,5,5,6,6],"right_children":[2,4,6,8,10,12,14,-1,-1,-1,-1,-1,-1,-1,-1],"split_conditions":[4.0449873E-3,2.3032153E2,6.0471155E2,3.5E0,7.361707E-1,2.2290895E0,3.1185013E-1,2.1755325E-3,-6.3826976E-4,2.759481E-3,5.424718E-3,3.8769175E-3,7.3505095E-3,4.9670613E-3,2.3055149E-3],"split_indices":[24,33,37,3,48,16,48,0,0,0,0,0,0,0,0],"split_type":[0,0,0,0,0,0,0,0,0,0,0,0,0,0,0],"sum_hessian":[7.15E2,3.62E2,3.53E2,1E1,3.52E2,2.68E2,8.5E1,2E0,8E0,3.44E2,8E0,2.57E2,1.1E1,9E0,7.6E1],"tree_param":{"num_deleted":"0","num_feature":"57","num_nodes":"15","size_leaf_vector":"0"}},{"base_weights":[1.0823491E-1,3.0477593E-2,1.1204245E-1,-9.126822E-4,9.6291155E-2,1.21184215E-1,8.515918E-2,1.0766101E-1,-1.4131116E-2,1.17731206E-1,4.1367533E-3,1.3079304E-1,9.576507E-2,7.177819E-2,1.2459857E-1],"categories":[],"categories_nodes":[],"categories_segments":[],"categories_sizes":[],"default_left":[1,1,1,1,1,1,1,0,0,0,0,0,0,0,0],"id":59,"left_children":[1,3,5,7,9,11,13,-1,-1,-1,-1,-1,-1,-1,-1],"loss_changes":[2.0005989E-1,6.718588E-2,1.544609E-1,3.30521E-2,2.0502336E-2,1.11831665E-1,8.339667E-2,0E0,0E0,0E0,0E0,0E0,0E0,0E0,0E0],"parents":[2147483647,0,0,1,1,2,2,3,3,4,4,5,5,6,6],"right_children":[2,4,6,8,10,12,14,-1,-1,-1,-1,-1,-1,-1,-1],"split_conditions":[2.3929944E2,9.8319983E-1,4.8364972E5,1.4150904E0,2.4634354E1,8.476277E1,5.3981308E1,3.2298302E-3,-4.2393347E-4,3.531936E-3,1.2410259E-4,3.923791E-3,2.872952E-3,2.1533458E-3,3.737957E-3],"split_indices":[33,46,41,29,40,39,9,0,0,0,0,0,0,0,0],"split_type":[0,0,0,0,0,0,0,0,0,0,0,0,0,0,0],"sum_hessian":[6.81E2,3.2E1,6.49E2,2.2E1,1E1,4.83E2,1.66E2,2E0,2E1,8E0,2E0,3.49E2,1.34E2,1.25E2,4.1E1],"tree_param":{"num_deleted":"0","num_feature":"57","num_nodes":"15","size_leaf_vector":"0"}},{"base_weights":[1.0329284E-1,9.921875E-2,1.875971E-1,8.741182E-2,1.3039802E-1,3.247934E-1,1.6745725E-1,1.01853214E-1,7.009998E-2,1.169482E-1,1.8048604E-1,2.067593E-1,1.16130546E-1],"categories":[],"categories_nodes":[],"categories_segments":[],"categories_sizes":[],"default_left":[1,1,1,1,1,0,1,0,0,0,0,0,0],"id":60,"left_children":[1,3,5,7,9,-1,11,-1,-1,-1,-1,-1,-1],"loss_changes":[2.295723E-1,2.3892403E-1,5.984354E-2,1.1730862E-1,1.1171818E-1,0E0,4.5485973E-2,0E0,0E0,0E0,0E0,0E0,0E0],"parents":[2147483647,0,0,1,1,2,2,3,3,4,4,6,6],"right_children":[2,4,6,8,10,-1,12,-1,-1,-1,-1,-1,-1],"split_conditions":[6.0988E-3,5.3979515E1,7.315E5,5.642384E2,2.9151828E2,9.743801E-3,6.2730033E-3,3.0555963E-3,2.1029992E-3,3.508446E-3,5.414581E-3,6.202779E-3,3.4839164E-3],"split_indices":[23,9,0,37,34,0,23,0,0,0,0,0,0],"split_type":[0,0,0,0,0,0,0,0,0,0,0,0,0],"sum_hessian":[6.95E2,6.64E2,3.1E1,4.83E2,1.81E2,3E0,2.8E1,2.62E2,2.21E2,1.44E2,3.7E1,1.5E1,1.3E1],"tree_param":{"num_deleted":"0","num_feature":"57","num_nodes":"13","size_leaf_vector":"0"}},{"base_weights":[1.0228509E-1,1.1493157E-1,7.994166E-2,4.5532852E-2,1.1835365E-1,6.0023524E-2,1.1643885E-1,8.628623E-2,-1.4776312E-2,1.2604798E-1,8.271867E-2,1.8633947E-1,5.5670675E-2,6.8434805E-2,1.592834E-1],"categories":[],"categories_nodes":[],"categories_segments":[],"categories_sizes":[],"default_left":[1,1,1,1,1,1,1,0,0,0,0,0,0,0,0],"id":61,"left_children":[1,3,5,7,9,11,13,-1,-1,-1,-1,-1,-1,-1,-1],"loss_changes":[2.0012474E-1,1.06906414E-1,1.8805838E-1,5.593805E-2,1.1529207E-1,8.910972E-2,1.8479562E-1,0E0,0E0,0E0,0E0,0E0,0E0,0E0,0E0],"parents":[2147483647,0,0,1,1,2,2,3,3,4,4,5,5,6,6],"right_children":[2,4,6,8,10,12,14,-1,-1,-1,-1,-1,-1,-1,-1],"split_conditions":[4.6171578E5,2.3825716E2,4.4299268E2,4.8792413E-1,5.490498E5,9.262818E-1,5.3457184E1,2.5885869E-3,-4.4328935E-4,3.7814395E-3,2.48156E-3,5.590184E-3,1.6701202E-3,2.053044E-3,4.778502E-3],"split_indices":[41,33,33,49,35,12,9,0,0,0,0,0,0,0,0],"split_type":[0,0,0,0,0,0,0,0,0,0,0,0,0,0,0],"sum_hessian":[7.24E2,4.61E2,2.63E2,2.2E1,4.39E2,1.71E2,9.2E1,1.3E1,9E0,3.6E2,7.9E1,5E0,1.66E2,4.4E1,4.8E1],"tree_param":{"num_deleted":"0","num_feature":"57","num_nodes":"15","size_leaf_vector":"0"}},{"base_weights":[9.913776E-2,4.5072768E-2,1.03501394E-1,5.6739695E-2,-4.365269E-2,1.2806459E-1,9.39159E-2,8.249461E-2,5.851836E-3,-6.582761E-2,5.2206237E-2,1.1326467E-1,1.8530725E-1,4.1166108E-2,9.917358E-2],"categories":[],"categories_nodes":[],"categories_segments":[],"categories_sizes":[],"default_left":[1,1,1,0,1,1,1,0,0,0,0,0,0,0,0],"id":62,"left_children":[1,3,5,7,9,11,13,-1,-1,-1,-1,-1,-1,-1,-1],"loss_changes":[1.638732E-1,5.6619138E-2,1.4738274E-1,6.2012717E-2,1.5535122E-2,1.4326978E-1,1.2844801E-1,0E0,0E0,0E0,0E0,0E0,0E0,0E0,0E0],"parents":[2147483647,0,0,1,1,2,2,3,3,4,4,5,5,6,6],"right_children":[2,4,6,8,10,12,14,-1,-1,-1,-1,-1,-1,-1,-1],"split_conditions":[4.5E0,7.5104094E0,6.868028E-2,5.3675103E-1,1.675E0,3.3225017E0,2.4415956E2,2.4748382E-3,1.7555508E-4,-1.9748283E-3,1.566187E-3,3.3979402E-3,5.559217E-3,1.2349832E-3,2.9752075E-3],"split_indices":[51,10,10,48,17,14,33,0,0,0,0,0,0,0,0],"split_type":[0,0,0,0,0,0,0,0,0,0,0,0,0,0,0],"sum_hessian":[7.04E2,5.3E1,6.51E2,4.7E1,6E0,1.81E2,4.7E2,3.1E1,1.6E1,5E0,1E0,1.45E2,3.6E1,4.3E1,4.27E2],"tree_param":{"num_deleted":"0","num_feature":"57","num_nodes":"15","size_leaf_vector":"0"}},{"base_weights":[9.340021E-2,2.74806E-1,9.191769E-2,3.670967E-1,9.0637825E-2,1.03259705E-1,7.250606E-2,2.1751562E-2,1.2931149E-1,9.403863E-2,1.4077307E-1,6.54604E-2,1.4246938E-1],"categories":[],"categories_nodes":[],"categories_segments":[],"categories_sizes":[],"default_left":[1,1,1,0,1,1,1,0,0,0,0,0,0],"id":63,"left_children":[1,3,5,-1,7,9,11,-1,-1,-1,-1,-1,-1],"loss_changes":[1.7818117E-1,7.6847136E-2,1.5136385E-1,0E0,5.253846E-3,1.4679384E-1,1.2424028E-1,0E0,0E0,0E0,0E0,0E0,0E0],"parents":[2147483647,0,0,1,1,2,2,4,4,5,5,6,6],"right_children":[2,4,6,-1,8,10,12,-1,-1,-1,-1,-1,-1],"split_conditions":[6.05E5,4.54508E0,4.624E5,1.1012901E-2,5.74E5,6.492882E2,8.895E5,6.525469E-4,3.8793446E-3,2.8211589E-3,4.223192E-3,1.963812E-3,4.274081E-3],"split_indices":[0,10,41,0,0,22,0,0,0,0,0,0,0],"split_type":[0,0,0,0,0,0,0,0,0,0,0,0,0],"sum_hessian":[7.09E2,5E0,7.04E2,3E0,2E0,4.43E2,2.61E2,1E0,1E0,3.57E2,8.6E1,2.38E2,2.3E1],"tree_param":{"num_deleted":"0","num_feature":"57","num_nodes":"13","size_leaf_vector":"0"}},{"base_weights":[9.232942E-2,8.7218545E-2,1.471719E-1,1.0129376E-1,7.1490996E-2,1.6535574E-1,2.8342051E-2,7.4029334E-2,1.1467338E-1,7.6138735E-2,-5.1448163E-2,2.6848757E-1,1.4035738E-1,-6.7785154E-3,1.1398711E-1],"categories":[],"categories_nodes":[],"categories_segments":[],"categories_sizes":[],"default_left":[1,1,1,1,1,1,1,0,0,0,0,0,0,0,0],"id":64,"left_children":[1,3,5,7,9,11,13,-1,-1,-1,-1,-1,-1,-1,-1],"loss_changes":[1.9160938E-1,1.397152E-1,1.2622333E-1,1.1996555E-1,1.776607E-1,1.1393154E-1,2.5953507E-2,0E0,0E0,0E0,0E0,0E0,0E0,0E0,0E0],"parents":[2147483647,0,0,1,1,2,2,3,3,4,4,5,5,6,6],"right_children":[2,4,6,8,10,12,14,-1,-1,-1,-1,-1,-1,-1,-1],"split_conditions":[3.1660733E0,5.637572E2,3.534E5,2.4320846E0,8.83967E0,7.8E5,1.4180688E3,2.22088E-3,3.4402015E-3,2.284162E-3,-1.5434448E-3,8.054627E-3,4.2107212E-3,-2.0335546E-4,3.4196132E-3],"split_indices":[27,37,43,27,10,0,20,0,0,0,0,0,0,0,0],"split_type":[0,0,0,0,0,0,0,0,0,0,0,0,0,0,0],"sum_hessian":[7.06E2,6.47E2,5.9E1,3.4E2,3.07E2,5.1E1,8E0,1.13E2,2.27E2,2.96E2,1.1E1,9E0,4.2E1,6E0,2E0],"tree_param":{"num_deleted":"0","num_feature":"57","num_nodes":"15","size_leaf_vector":"0"}},{"base_weights":[8.530716E-2,6.8608634E-2,9.9017456E-2,6.372257E-2,1.33259E-1,1.20323755E-1,8.010891E-2,6.866173E-2,1.0854071E-2,8.381645E-2,2.0394666E-1,1.1257389E-1,1.8346925E-1,-4.414714E-2,8.603295E-2],"categories":[],"categories_nodes":[],"categories_segments":[],"categories_sizes":[],"default_left":[1,1,1,1,1,1,1,0,0,0,0,0,0,0,0],"id":65,"left_children":[1,3,5,7,9,11,13,-1,-1,-1,-1,-1,-1,-1,-1],"loss_changes":[1.5445852E-1,9.4468355E-2,1.4726424E-1,7.574558E-2,6.659502E-2,7.6046705E-2,1.502229E-1,0E0,0E0,0E0,0E0,0E0,0E0,0E0,0E0],"parents":[2147483647,0,0,1,1,2,2,3,3,4,4,5,5,6,6],"right_children":[2,4,6,8,10,12,14,-1,-1,-1,-1,-1,-1,-1,-1],"split_conditions":[2.6403894E0,2.839327E5,5.7509753E2,3.54121E5,1.3530555E3,2.6284562E5,5.216346E1,2.0598518E-3,3.2562212E-4,2.5144934E-3,6.1184E-3,3.3772166E-3,5.5040773E-3,-1.3244142E-3,2.5809885E-3],"split_indices":[27,36,37,43,20,36,9,0,0,0,0,0,0,0,0],"split_type":[0,0,0,0,0,0,0,0,0,0,0,0,0,0,0],"sum_hessian":[6.89E2,3.12E2,3.77E2,2.91E2,2.1E1,1.76E2,2.01E2,2.66E2,2.5E1,1.3E1,8E0,1.58E2,1.8E1,9E0,1.92E2],"tree_param":{"num_deleted":"0","num_feature":"57","num_nodes":"15","size_leaf_vector":"0"}},{"base_weights":[8.8371634E-2,8.4510274E-2,1.3557053E-1,7.933486E-2,1.2601596E-1,-3.161112E-2,1.4669634E-1,6.25005E-2,8.9897916E-2,1.7024733E-1,9.965557E-2,-5.505035E-2,1.7991304E-2,1.0815491E-1,2.0210621E-1],"categories":[],"categories_nodes":[],"categories_segments":[],"categories_sizes":[],"default_left":[1,1,0,1,1,1,1,0,0,0,0,0,0,0,0],"id":66,"left_children":[1,3,5,7,9,11,13,-1,-1,-1,-1,-1,-1,-1,-1],"loss_changes":[1.15560055E-1,1.274314E-1,9.4390094E-2,9.4903946E-2,7.021892E-2,4.564463E-3,8.837497E-2,0E0,0E0,0E0,0E0,0E0,0E0,0E0,0E0],"parents":[2147483647,0,0,1,1,2,2,3,3,4,4,5,5,6,6],"right_children":[2,4,6,8,10,12,14,-1,-1,-1,-1,-1,-1,-1,-1],"split_conditions":[7.032068E2,5.6751687E-3,9.709653E-2,5.335147E1,7.010638E-1,5.4E1,1.8462188E0,1.875015E-3,2.6969374E-3,5.10742E-3,2.989667E-3,-1.6515105E-3,5.397391E-4,3.244647E-3,6.063186E-3],"split_indices":[22,23,47,9,45,1,28,0,0,0,0,0,0,0,0],"split_type":[0,0,0,0,0,0,0,0,0,0,0,0,0,0,0],"sum_hessian":[6.65E2,6.16E2,4.9E1,5.49E2,6.7E1,3E0,4.6E1,2.13E2,3.36E2,2.4E1,4.3E1,2E0,1E0,2.8E1,1.8E1],"tree_param":{"num_deleted":"0","num_feature":"57","num_nodes":"15","size_leaf_vector":"0"}},{"base_weights":[8.371565E-2,-3.3336321E-3,8.647555E-2,-2.0774333E-2,6.8737425E-2,7.179033E-2,9.857028E-2,-2.9035633E-2,8.253229E-2,1.2629429E-1,-2.5669099E-3,6.7580596E-2,1.415452E-1,1.0630153E-1,5.692698E-2],"categories":[],"categories_nodes":[],"categories_segments":[],"categories_sizes":[],"default_left":[1,1,1,1,1,1,1,0,0,0,0,0,0,0,0],"id":67,"left_children":[1,3,5,7,9,11,13,-1,-1,-1,-1,-1,-1,-1,-1],"loss_changes":[1.7228127E-1,2.8995806E-2,1.1981487E-1,1.6986959E-2,1.8630331E-2,8.7863564E-2,1.1915612E-1,0E0,0E0,0E0,0E0,0E0,0E0,0E0,0E0],"parents":[2147483647,0,0,1,1,2,2,3,3,4,4,5,5,6,6],"right_children":[2,4,6,8,10,12,14,-1,-1,-1,-1,-1,-1,-1,-1],"split_conditions":[2.3149817E2,1.325E0,1.2412021E3,1.3532254E0,5.493625E2,5.305383E2,6.483343E2,-8.71069E-4,2.4759686E-3,3.7888284E-3,-7.7007295E-5,2.0274178E-3,4.246356E-3,3.189046E-3,1.7078094E-3],"split_indices":[33,17,20,11,37,33,37,0,0,0,0,0,0,0,0],"split_type":[0,0,0,0,0,0,0,0,0,0,0,0,0,0,0],"sum_hessian":[7.16E2,2.2E1,6.94E2,1.8E1,4E0,3.15E2,3.79E2,1.7E1,1E0,2E0,2E0,2.98E2,1.7E1,3.19E2,6E1],"tree_param":{"num_deleted":"0","num_feature":"57","num_nodes":"15","size_leaf_vector":"0"}},{"base_weights":[8.500587E-2,8.0220066E-2,1.4213863E-1,6.630593E-2,9.57527E-2,1.11937955E-1,2.0829964E-1,8.567769E-2,5.1696293E-2,7.743904E-2,1.20387115E-1,1.18747905E-1,-9.562361E-2,2.2485347E-1,7.0627496E-2],"categories":[],"categories_nodes":[],"categories_segments":[],"categories_sizes":[],"default_left":[1,1,1,1,1,1,1,0,0,0,0,0,0,0,0],"id":68,"left_children":[1,3,5,7,9,11,13,-1,-1,-1,-1,-1,-1,-1,-1],"loss_changes":[1.8938828E-1,1.39359E-1,9.723854E-2,9.669888E-2,1.354196E-1,6.009671E-2,2.9663086E-2,0E0,0E0,0E0,0E0,0E0,0E0,0E0,0E0],"parents":[2147483647,0,0,1,1,2,2,3,3,4,4,5,5,6,6],"right_children":[2,4,6,8,10,12,14,-1,-1,-1,-1,-1,-1,-1,-1],"split_conditions":[1.5396228E3,1.8396244E0,5.5E0,5.3738367E2,8.3712006E1,5.223337E2,6.690871E2,2.5703306E-3,1.5508888E-3,2.3231711E-3,3.6116133E-3,3.5624371E-3,-2.8687082E-3,6.745604E-3,2.1188247E-3],"split_indices":[20,29,3,37,39,33,37,0,0,0,0,0,0,0,0],"split_type":[0,0,0,0,0,0,0,0,0,0,0,0,0,0,0],"sum_hessian":[7.13E2,6.59E2,5.4E1,3.49E2,3.1E2,3.8E1,1.6E1,1.49E2,2E2,1.79E2,1.31E2,3.7E1,1E0,1.4E1,2E0],"tree_param":{"num_deleted":"0","num_feature":"57","num_nodes":"15","size_leaf_vector":"0"}},{"base_weights":[7.689489E-2,8.238948E-2,4.907397E-2,1.182205E-2,8.600396E-2,4.1818958E-2,2.1532328E-1,7.2252983E-4,1.2267275E-1,8.164378E-2,1.4687423E-1,3.1988036E-2,1.2164016E-1,1.1020465E-1,2.7737728E-1],"categories":[],"categories_nodes":[],"categories_segments":[],"categories_sizes":[],"default_left":[1,1,1,1,1,1,1,0,0,0,0,0,0,0,0],"id":69,"left_children":[1,3,5,7,9,11,13,-1,-1,-1,-1,-1,-1,-1,-1],"loss_changes":[9.925127E-2,1.4041471E-1,1.2877628E-1,3.3791397E-2,1.3347459E-1,8.162679E-2,1.40695125E-2,0E0,0E0,0E0,0E0,0E0,0E0,0E0,0E0],"parents":[2147483647,0,0,1,1,2,2,3,3,4,4,5,5,6,6],"right_children":[2,4,6,8,10,12,14,-1,-1,-1,-1,-1,-1,-1,-1],"split_conditions":[6.4403296E2,2.3825716E2,2.263286E0,3.016898E2,5.9677865E-3,3.1959486E0,2.15E1,2.1675894E-5,3.6801824E-3,2.4493134E-3,4.406227E-3,9.5964107E-4,3.6492047E-3,3.3061395E-3,8.321318E-3],"split_indices":[37,33,16,38,23,27,4,0,0,0,0,0,0,0,0],"split_type":[0,0,0,0,0,0,0,0,0,0,0,0,0,0,0],"sum_hessian":[6.62E2,5.52E2,1.1E2,2.7E1,5.25E2,1.06E2,4E0,2.5E1,2E0,4.91E2,3.4E1,9.5E1,1.1E1,2E0,2E0],"tree_param":{"num_deleted":"0","num_feature":"57","num_nodes":"15","size_leaf_vector":"0"}},{"base_weights":[7.587192E-2,8.519646E-2,5.613865E-2,5.578306E-2,9.863187E-2,-6.505548E-2,6.2417563E-2,5.200426E-2,2.7059874E-1,-6.150988E-2,1.00202315E-1,-8.170209E-2,1.1212754E-2,6.778665E-2,-3.6706313E-2],"categories":[],"categories_nodes":[],"categories_segments":[],"categories_sizes":[],"default_left":[1,1,1,1,1,0,1,0,0,0,0,0,0,0,0],"id":70,"left_children":[1,3,5,7,9,11,13,-1,-1,-1,-1,-1,-1,-1,-1],"loss_changes":[1.2779093E-1,1.8673849E-1,1.7591125E-1,1.1594334E-1,8.569741E-2,1.5058547E-2,1.1699861E-1,0E0,0E0,0E0,0E0,0E0,0E0,0E0,0E0],"parents":[2147483647,0,0,1,1,2,2,3,3,4,4,5,5,6,6],"right_children":[2,4,6,8,10,12,14,-1,-1,-1,-1,-1,-1,-1,-1],"split_conditions":[6.043519E2,1.33312E3,5.216346E1,6.8288374E-1,1.5E0,2.9908225E5,1.7282536E0,1.5601277E-3,8.117962E-3,-1.8452964E-3,3.0060695E-3,-2.4510627E-3,3.3638263E-4,2.0335994E-3,-1.1011894E-3],"split_indices":[37,19,9,48,8,44,50,0,0,0,0,0,0,0,0],"split_type":[0,0,0,0,0,0,0,0,0,0,0,0,0,0,0],"sum_hessian":[7.07E2,4.79E2,2.28E2,1.51E2,3.28E2,1.1E1,2.17E2,1.49E2,2E0,3E0,3.25E2,9E0,2E0,2.06E2,1.1E1],"tree_param":{"num_deleted":"0","num_feature":"57","num_nodes":"15","size_leaf_vector":"0"}},{"base_weights":[7.312004E-2,6.885114E-2,1.3239881E-1,2.4917157E-2,7.356823E-2,1.5783054E-1,4.253275E-2,1.10941395E-1,5.0807754E-3,5.1510505E-2,8.161423E-2,1.01457946E-1,2.1625343E-1,7.871168E-2,-4.1069645E-2],"categories":[],"categories_nodes":[],"categories_segments":[],"categories_sizes":[],"default_left":[1,1,1,1,1,1,1,0,0,0,0,0,0,0,0],"id":71,"left_children":[1,3,5,7,9,11,13,-1,-1,-1,-1,-1,-1,-1,-1],"loss_changes":[1.651156E-1,1.289196E-1,9.8345995E-2,1.0466236E-1,9.826112E-2,1.0265368E-1,3.3375107E-2,0E0,0E0,0E0,0E0,0E0,0E0,0E0,0E0],"parents":[2147483647,0,0,1,1,2,2,3,3,4,4,5,5,6,6],"right_children":[2,4,6,8,10,12,14,-1,-1,-1,-1,-1,-1,-1,-1],"split_conditions":[3.1655924E0,5.2274757E1,1.0096785E0,9.90196E0,2.4803932E0,4.1452893E2,3.8916022E-1,3.3282419E-3,1.5242325E-4,1.5453151E-3,2.448427E-3,3.0437384E-3,6.487603E-3,2.3613505E-3,-1.2320894E-3],"split_indices":[27,9,30,55,27,33,49,0,0,0,0,0,0,0,0],"split_type":[0,0,0,0,0,0,0,0,0,0,0,0,0,0,0],"sum_hessian":[6.7E2,6.26E2,4.4E1,6.1E1,5.65E2,3.4E1,1E1,1.1E1,5E1,1.52E2,4.13E2,1.8E1,1.6E1,7E0,3E0],"tree_param":{"num_deleted":"0","num_feature":"57","num_nodes":"15","size_leaf_vector":"0"}},{"base_weights":[7.261865E-2,8.1713885E-2,5.467227E-2,2.26709E-1,7.898437E-2,4.804071E-2,1.2927832E-1,6.7659274E-2,3.0731252E-1,7.30375E-2,1.2948492E-1,1.1591055E-2,6.048416E-2,1.5793346E-1,5.9819296E-2],"categories":[],"categories_nodes":[],"categories_segments":[],"categories_sizes":[],"default_left":[1,1,1,1,1,1,1,0,0,0,0,0,0,0,0],"id":72,"left_children":[1,3,5,7,9,11,13,-1,-1,-1,-1,-1,-1,-1,-1],"loss_changes":[1.147182E-1,1.788373E-1,1.1687267E-1,9.8573446E-2,1.3537097E-1,1.0102004E-1,3.4088254E-2,0E0,0E0,0E0,0E0,0E0,0E0,0E0,0E0],"parents":[2147483647,0,0,1,1,2,2,3,3,4,4,5,5,6,6],"right_children":[2,4,6,8,10,12,14,-1,-1,-1,-1,-1,-1,-1,-1],"split_conditions":[6.0126245E2,1.7341475E2,4.9339832E2,5.856309E-3,5.25E1,1.7991602E3,6.007459E5,2.0297782E-3,9.219375E-3,2.191125E-3,3.8845476E-3,3.4773166E-4,1.8145248E-3,4.7380035E-3,1.7945789E-3],"split_indices":[37,38,33,25,1,19,35,0,0,0,0,0,0,0,0],"split_type":[0,0,0,0,0,0,0,0,0,0,0,0,0,0,0],"sum_hessian":[7.16E2,4.74E2,2.42E2,8E0,4.66E2,2.23E2,1.9E1,3E0,5E0,4.18E2,4.8E1,5.7E1,1.66E2,1.3E1,6E0],"tree_param":{"num_deleted":"0","num_feature":"57","num_nodes":"15","size_leaf_vector":"0"}},{"base_weights":[6.645238E-2,5.496326E-2,9.0072975E-2,6.836722E-2,3.6042638E-2,7.093708E-2,1.3529311E-1,-4.394441E-3,7.231639E-2,1.2379555E-2,5.2174184E-2,9.725551E-3,8.174309E-2,1.6199093E-1,7.143484E-2],"categories":[],"categories_nodes":[],"categories_segments":[],"categories_sizes":[],"default_left":[1,1,1,1,1,1,1,0,0,0,0,0,0,0,0],"id":73,"left_children":[1,3,5,7,9,11,13,-1,-1,-1,-1,-1,-1,-1,-1],"loss_changes":[1.85184E-1,1.1707759E-1,1.9033277E-1,7.846129E-2,7.392201E-2,1.0510409E-1,1.0758841E-1,0E0,0E0,0E0,0E0,0E0,0E0,0E0,0E0],"parents":[2147483647,0,0,1,1,2,2,3,3,4,4,5,5,6,6],"right_children":[2,4,6,8,10,12,14,-1,-1,-1,-1,-1,-1,-1,-1],"split_conditions":[1.3523839E3,5.6343274E2,6.616471E2,2.015522E0,2.967949E0,1.8580575E5,1.0011494E0,-1.3183322E-4,2.1694917E-3,3.7138665E-4,1.5652255E-3,2.9176654E-4,2.4522927E-3,4.859728E-3,2.1430452E-3],"split_indices":[20,37,22,27,13,36,30,0,0,0,0,0,0,0,0],"split_type":[0,0,0,0,0,0,0,0,0,0,0,0,0,0,0],"sum_hessian":[6.91E2,4.66E2,2.25E2,2.72E2,1.94E2,1.59E2,6.6E1,1.4E1,2.58E2,7.9E1,1.15E2,2.4E1,1.35E2,4.6E1,2E1],"tree_param":{"num_deleted":"0","num_feature":"57","num_nodes":"15","size_leaf_vector":"0"}},{"base_weights":[6.7738704E-2,8.793301E-2,5.859929E-2,7.8900605E-2,1.4446439E-1,6.233285E-2,-2.957441E-4,8.6964875E-2,1.0298441E-2,1.10882945E-1,2.2090776E-1,3.6250696E-2,7.073538E-2,-4.766243E-2,4.4024568E-2],"categories":[],"categories_nodes":[],"categories_segments":[],"categories_sizes":[],"default_left":[1,1,1,1,1,1,1,0,0,0,0,0,0,0,0],"id":74,"left_children":[1,3,5,7,9,11,13,-1,-1,-1,-1,-1,-1,-1,-1],"loss_changes":[1.2744904E-1,1.0587013E-1,1.06984854E-1,1.04388595E-1,6.348133E-2,9.898174E-2,6.29787E-2,0E0,0E0,0E0,0E0,0E0,0E0,0E0,0E0],"parents":[2147483647,0,0,1,1,2,2,3,3,4,4,5,5,6,6],"right_children":[2,4,6,8,10,12,14,-1,-1,-1,-1,-1,-1,-1,-1],"split_conditions":[6.284081E-1,1.4700022E3,3.857904E5,3.625E0,1.1866547E0,1.1189578E3,2.1621778E5,2.6089463E-3,3.0895323E-4,3.3264882E-3,6.627233E-3,1.0875209E-3,2.1220613E-3,-1.4298728E-3,1.3207371E-3],"split_indices":[10,20,43,13,46,20,36,0,0,0,0,0,0,0,0],"split_type":[0,0,0,0,0,0,0,0,0,0,0,0,0,0,0],"sum_hessian":[7.04E2,2.18E2,4.86E2,1.89E2,2.9E1,4.57E2,2.9E1,1.69E2,2E1,2.1E1,8E0,1.12E2,3.45E2,1.4E1,1.5E1],"tree_param":{"num_deleted":"0","num_feature":"57","num_nodes":"15","size_leaf_vector":"0"}},{"base_weights":[6.945956E-2,5.749554E-2,9.424908E-2,5.518265E-2,1.58397E-1,6.63841E-2,1.1319499E-1,4.241779E-2,7.1971655E-2,1.9482826E-1,5.7701893E-2,5.551161E-2,1.2445608E-1,1.2134342E-1,1.9349238E-2],"categories":[],"categories_nodes":[],"categories_segments":[],"categories_sizes":[],"default_left":[1,1,1,1,1,0,1,0,0,0,0,0,0,0,0],"id":75,"left_children":[1,3,5,7,9,11,13,-1,-1,-1,-1,-1,-1,-1,-1],"loss_changes":[2.0801234E-1,1.07765794E-1,1.17930174E-1,9.930599E-2,3.289774E-2,5.621171E-2,1.0320699E-1,0E0,0E0,0E0,0E0,0E0,0E0,0E0,0E0],"parents":[2147483647,0,0,1,1,2,2,3,3,4,4,5,5,6,6],"right_children":[2,4,6,8,10,12,14,-1,-1,-1,-1,-1,-1,-1,-1],"split_conditions":[1.3517136E3,3.7551538E2,2.4023544E2,5.503241E-3,1.9060625E5,2.6253134E-1,2.3719192E0,1.2725337E-3,2.1591496E-3,5.8448478E-3,1.7310567E-3,1.6653482E-3,3.7336822E-3,3.6403025E-3,5.804771E-4],"split_indices":[20,34,34,25,42,47,28,0,0,0,0,0,0,0,0],"split_type":[0,0,0,0,0,0,0,0,0,0,0,0,0,0,0],"sum_hessian":[7.1E2,4.8E2,2.3E2,4.7E2,1E1,9.4E1,1.36E2,2.68E2,2.02E2,7E0,3E0,8E1,1.4E1,1.25E2,1.1E1],"tree_param":{"num_deleted":"0","num_feature":"57","num_nodes":"15","size_leaf_vector":"0"}},{"base_weights":[5.878166E-2,2.3423055E-2,6.347777E-2,1.5209759E-2,1.0782735E-1,6.0662773E-2,1.1667008E-1,1.1688258E-2,1.9208407E-1,2.6404928E-2,1.3503505E-1,6.279978E-2,-2.8751584E-2,7.3154405E-2,1.7988773E-1],"categories":[],"categories_nodes":[],"categories_segments":[],"categories_sizes":[],"default_left":[1,1,1,1,1,1,1,0,0,0,0,0,0,0,0],"id":76,"left_children":[1,3,5,7,9,11,13,-1,-1,-1,-1,-1,-1,-1,-1],"loss_changes":[1.1922598E-1,5.8451798E-2,9.191823E-2,4.7772188E-2,1.4832079E-2,1.167922E-1,8.007538E-2,0E0,0E0,0E0,0E0,0E0,0E0,0E0,0E0],"parents":[2147483647,0,0,1,1,2,2,3,3,4,4,5,5,6,6],"right_children":[2,4,6,8,10,12,14,-1,-1,-1,-1,-1,-1,-1,-1],"split_conditions":[5.2412094E1,2.5500717E1,7.3581494E2,4.010341E0,4.9504135E-3,7.08208E2,1.9056716E0,3.5064772E-4,5.762522E-3,7.921478E-4,4.0510516E-3,1.8839934E-3,-8.625475E-4,2.194632E-3,5.3966315E-3],"split_indices":[9,40,22,13,25,22,28,0,0,0,0,0,0,0,0],"split_type":[0,0,0,0,0,0,0,0,0,0,0,0,0,0,0],"sum_hessian":[7.22E2,8.5E1,6.37E2,7.8E1,7E0,6.06E2,3.1E1,7.7E1,1E0,2E0,5E0,5.92E2,1.4E1,1.9E1,1.2E1],"tree_param":{"num_deleted":"0","num_feature":"57","num_nodes":"15","size_leaf_vector":"0"}},{"base_weights":[6.2451832E-2,5.9028573E-2,1.5617314E-1,4.9315013E-2,8.080349E-2,-4.909587E-2,1.6638723E-1,4.528992E-2,1.2523255E-1,6.827617E-2,1.1832851E-1,1.4306872E-1,2.7253503E-1],"categories":[],"categories_nodes":[],"categories_segments":[],"categories_sizes":[],"default_left":[1,1,0,1,1,0,1,0,0,0,0,0,0],"id":77,"left_children":[1,3,5,7,9,-1,11,-1,-1,-1,-1,-1,-1],"loss_changes":[2.121129E-1,1.3601923E-1,5.3355396E-2,1.3543689E-1,9.021318E-2,0E0,3.619659E-2,0E0,0E0,0E0,0E0,0E0,0E0],"parents":[2147483647,0,0,1,1,2,2,3,3,4,4,6,6],"right_children":[2,4,6,8,10,-1,12,-1,-1,-1,-1,-1,-1],"split_conditions":[1.634624E3,1.9205623E0,1.5647675E5,5.391348E2,4.4324133E2,-1.472876E-3,1.5961539E0,1.3586975E-3,3.7569765E-3,2.048285E-3,3.5498552E-3,4.2920616E-3,8.17605E-3],"split_indices":[20,29,44,33,33,0,17,0,0,0,0,0,0],"split_type":[0,0,0,0,0,0,0,0,0,0,0,0,0],"sum_hessian":[6.75E2,6.52E2,2.3E1,4.52E2,2E2,1E0,2.2E1,4.3E2,2.2E1,1.51E2,4.9E1,1.9E1,3E0],"tree_param":{"num_deleted":"0","num_feature":"57","num_nodes":"13","size_leaf_vector":"0"}},{"base_weights":[6.0711414E-2,4.6602987E-2,7.58846E-2,-2.2037731E-2,4.9935125E-2,6.0872108E-2,1.1553887E-1,4.4020362E-2,-3.7222866E-2,5.5552457E-2,1.4875614E-2,7.532846E-2,3.1152409E-2,2.1219037E-1,1.0525458E-1],"categories":[],"categories_nodes":[],"categories_segments":[],"categories_sizes":[],"default_left":[1,1,1,1,1,1,1,0,0,0,0,0,0,0,0],"id":78,"left_children":[1,3,5,7,9,11,13,-1,-1,-1,-1,-1,-1,-1,-1],"loss_changes":[1.507566E-1,8.529109E-2,2.0037687E-1,1.8373553E-2,6.920546E-2,1.06021464E-1,8.1771374E-2,0E0,0E0,0E0,0E0,0E0,0E0,0E0,0E0],"parents":[2147483647,0,0,1,1,2,2,3,3,4,4,5,5,6,6],"right_children":[2,4,6,8,10,12,14,-1,-1,-1,-1,-1,-1,-1,-1],"split_conditions":[1.2670994E3,2.2804548E-3,4.5002258E2,9.0074927E-1,5.7315506E5,5.409579E5,1.1841424E0,1.3206109E-3,-1.1166859E-3,1.6665737E-3,4.4626842E-4,2.2598538E-3,9.3457225E-4,6.365711E-3,3.1576373E-3],"split_indices":[20,26,33,12,35,35,12,0,0,0,0,0,0,0,0],"split_type":[0,0,0,0,0,0,0,0,0,0,0,0,0,0,0],"sum_hessian":[7.12E2,3.7E2,3.42E2,1.7E1,3.53E2,2.49E2,9.3E1,3E0,1.4E1,3.04E2,4.9E1,1.67E2,8.2E1,8E0,8.5E1],"tree_param":{"num_deleted":"0","num_feature":"57","num_nodes":"15","size_leaf_vector":"0"}},{"base_weights":[5.3450957E-2,6.361989E-2,3.49528E-2,5.5114724E-2,1.08380295E-1,-5.8173183E-2,4.122083E-2,4.012651E-2,7.086791E-2,-5.723126E-2,1.1371124E-1,-6.197975E-3,-9.0673424E-2,3.781532E-2,1.7524175E-1],"categories":[],"categories_nodes":[],"categories_segments":[],"categories_sizes":[],"default_left":[1,1,1,1,1,1,1,0,0,0,0,0,0,0,0],"id":79,"left_children":[1,3,5,7,9,11,13,-1,-1,-1,-1,-1,-1,-1,-1],"loss_changes":[1.2689471E-1,1.6394782E-1,1.4275017E-1,8.582163E-2,6.4613104E-2,2.5901709E-2,1.0051969E-1,0E0,0E0,0E0,0E0,0E0,0E0,0E0,0E0],"parents":[2147483647,0,0,1,1,2,2,3,3,4,4,5,5,6,6],"right_children":[2,4,6,8,10,12,14,-1,-1,-1,-1,-1,-1,-1,-1],"split_conditions":[5.9670337E2,6.376725E2,5.2226223E1,2.629005E0,2.1415575E0,3.1048079E0,2.15E1,1.2037953E-3,2.1260374E-3,-1.7169378E-3,3.411337E-3,-1.8593925E-4,-2.7202026E-3,1.1344596E-3,5.2572526E-3],"split_indices":[37,22,9,27,27,13,52,0,0,0,0,0,0,0,0],"split_type":[0,0,0,0,0,0,0,0,0,0,0,0,0,0,0],"sum_hessian":[6.8E2,4.38E2,2.42E2,3.69E2,6.9E1,1.5E1,2.27E2,1.9E2,1.79E2,2E0,6.7E1,6E0,9E0,2.22E2,5E0],"tree_param":{"num_deleted":"0","num_feature":"57","num_nodes":"15","size_leaf_vector":"0"}},{"base_weights":[6.0209733E-2,4.7146216E-2,8.1463516E-2,9.8347105E-2,4.3955218E-2,5.5926133E-2,1.0066504E-1,2.8944498E-2,1.377117E-1,-5.1529533E-3,4.911022E-2,6.286644E-2,-3.2688603E-2,1.0153153E-2,1.0581929E-1],"categories":[],"categories_nodes":[],"categories_segments":[],"categories_sizes":[],"default_left":[1,1,1,1,1,1,1,0,0,0,0,0,0,0,0],"id":80,"left_children":[1,3,5,7,9,11,13,-1,-1,-1,-1,-1,-1,-1,-1],"loss_changes":[1.8785286E-1,6.7194164E-2,1.2443268E-1,6.494114E-2,1.015141E-1,7.021654E-2,6.827474E-2,0E0,0E0,0E0,0E0,0E0,0E0,0E0,0E0],"parents":[2147483647,0,0,1,1,2,2,3,3,4,4,5,5,6,6],"right_children":[2,4,6,8,10,12,14,-1,-1,-1,-1,-1,-1,-1,-1],"split_conditions":[1.7952633E0,2.5E0,1.8046441E0,4.3E1,5.247483E1,1.7911619E0,5.1595955E1,8.683349E-4,4.131351E-3,-1.5458859E-4,1.4733066E-3,1.8859932E-3,-9.806581E-4,3.0459458E-4,3.1745788E-3],"split_indices":[28,8,29,1,9,29,9,0,0,0,0,0,0,0,0],"split_type":[0,0,0,0,0,0,0,0,0,0,0,0,0,0,0],"sum_hessian":[6.83E2,4.24E2,2.59E2,2.4E1,4E2,1.12E2,1.47E2,9E0,1.5E1,3.8E1,3.62E2,1.04E2,8E0,8E0,1.39E2],"tree_param":{"num_deleted":"0","num_feature":"57","num_nodes":"15","size_leaf_vector":"0"}},{"base_weights":[5.754932E-2,-6.223743E-3,6.0515728E-2,-6.947206E-2,1.3265002E-2,2.2937137E-1,5.932491E-2,-8.5786745E-2,-1.968534E-2,3.2495167E-2,-3.248972E-2,7.706232E-2,3.3580613E-1,6.563078E-2,3.9358128E-2],"categories":[],"categories_nodes":[],"categories_segments":[],"categories_sizes":[],"default_left":[1,1,1,1,1,1,1,0,0,0,0,0,0,0,0],"id":81,"left_children":[1,3,5,7,9,11,13,-1,-1,-1,-1,-1,-1,-1,-1],"loss_changes":[1.3232851E-1,3.9288625E-2,1.2741494E-1,5.247537E-3,2.2084719E-2,6.001039E-2,8.224845E-2,0E0,0E0,0E0,0E0,0E0,0E0,0E0,0E0],"parents":[2147483647,0,0,1,1,2,2,3,3,4,4,5,5,6,6],"right_children":[2,4,6,8,10,12,14,-1,-1,-1,-1,-1,-1,-1,-1],"split_conditions":[2.3825716E2,5.3001137E1,6.065E5,1.4235841E3,1.7206566E0,5.3788887E1,5.548874E5,-2.5736024E-3,-5.9056014E-4,9.74855E-4,-9.746916E-4,2.3118698E-3,1.0074183E-2,1.9689233E-3,1.1807438E-3],"split_indices":[33,9,0,19,12,9,35,0,0,0,0,0,0,0,0],"split_type":[0,0,0,0,0,0,0,0,0,0,0,0,0,0,0],"sum_hessian":[6.98E2,3.1E1,6.67E2,7E0,2.4E1,4E0,6.63E2,5E0,2E0,1.7E1,7E0,2E0,2E0,5.03E2,1.6E2],"tree_param":{"num_deleted":"0","num_feature":"57","num_nodes":"15","size_leaf_vector":"0"}},{"base_weights":[5.378702E-2,1.3785374E-1,5.1557098E-2,2.0264691E-1,7.883767E-2,-3.2540243E-2,5.339688E-2,1.238767E-1,2.9747912E-1,4.8715368E-2,1.6548595E-1,-4.575119E-2,4.530692E-2,4.787998E-2,7.774312E-2],"categories":[],"categories_nodes":[],"categories_segments":[],"categories_sizes":[],"default_left":[1,1,1,0,1,1,1,0,0,0,0,0,0,0,0],"id":82,"left_children":[1,3,5,7,9,11,13,-1,-1,-1,-1,-1,-1,-1,-1],"loss_changes":[1.3282514E-1,6.27529E-2,1.1064339E-1,4.5069218E-2,2.3374625E-2,1.6977163E-2,9.1421366E-2,0E0,0E0,0E0,0E0,0E0,0E0,0E0,0E0],"parents":[2147483647,0,0,1,1,2,2,3,3,4,4,5,5,6,6],"right_children":[2,4,6,8,10,12,14,-1,-1,-1,-1,-1,-1,-1,-1],"split_conditions":[7.11E5,4.226457E2,2.2804144E2,1.2222223E-1,1.3726027E0,8.820134E1,6.572081E2,3.716301E-3,8.924373E-3,1.461461E-3,4.9645784E-3,-1.3725357E-3,1.3592076E-3,1.4363993E-3,2.3322937E-3],"split_indices":[0,22,33,47,11,39,22,0,0,0,0,0,0,0,0],"split_type":[0,0,0,0,0,0,0,0,0,0,0,0,0,0,0],"sum_hessian":[7.27E2,1.8E1,7.09E2,8E0,1E1,1.5E1,6.94E2,5E0,3E0,8E0,2E0,1.3E1,2E0,5.67E2,1.27E2],"tree_param":{"num_deleted":"0","num_feature":"57","num_nodes":"15","size_leaf_vector":"0"}},{"base_weights":[5.2056767E-2,4.755974E-2,9.235468E-2,4.533937E-2,1.3096355E-1,1.3762653E-1,6.3339986E-2,3.8446784E-2,7.3479585E-2,5.0230283E-2,1.7470491E-1,2.4305826E-1,1.0879596E-1,8.3710095E-3,8.350744E-2],"categories":[],"categories_nodes":[],"categories_segments":[],"categories_sizes":[],"default_left":[1,1,1,1,0,1,1,0,0,0,0,0,0,0,0],"id":83,"left_children":[1,3,5,7,9,11,13,-1,-1,-1,-1,-1,-1,-1,-1],"loss_changes":[1.2782967E-1,1.1675465E-1,8.956009E-2,1.2087846E-1,5.3880095E-2,7.036871E-2,4.8982486E-2,0E0,0E0,0E0,0E0,0E0,0E0,0E0,0E0],"parents":[2147483647,0,0,1,1,2,2,3,3,4,4,5,5,6,6],"right_children":[2,4,6,8,10,12,14,-1,-1,-1,-1,-1,-1,-1,-1],"split_conditions":[5.6799613E-3,5.4038153E2,3.5004556E5,6.464606E2,1.6138694E5,7.79E5,1.3603156E5,1.1534035E-3,2.2043874E-3,1.5069084E-3,5.2411472E-3,7.2917477E-3,3.2638789E-3,2.511303E-4,2.5052233E-3],"split_indices":[23,33,41,22,44,0,42,0,0,0,0,0,0,0,0],"split_type":[0,0,0,0,0,0,0,0,0,0,0,0,0,0,0],"sum_hessian":[7.17E2,6.46E2,7.1E1,6.3E2,1.6E1,2.7E1,4.4E1,5.07E2,1.23E2,6E0,1E1,5E0,2.2E1,1.2E1,3.2E1],"tree_param":{"num_deleted":"0","num_feature":"57","num_nodes":"15","size_leaf_vector":"0"}},{"base_weights":[5.1683556E-2,3.17391E-2,6.191255E-2,3.545345E-2,-4.3120343E-2,5.8229085E-2,1.361123E-1,6.6767104E-2,2.4541501E-2,4.6420384E-2,-6.44142E-2,1.8136887E-1,5.5456962E-2,6.714599E-2,1.8308222E-1],"categories":[],"categories_nodes":[],"categories_segments":[],"categories_sizes":[],"default_left":[1,1,1,1,1,1,1,0,0,0,0,0,0,0,0],"id":84,"left_children":[1,3,5,7,9,11,13,-1,-1,-1,-1,-1,-1,-1,-1],"loss_changes":[1.4192772E-1,6.708026E-2,1.2244415E-1,7.691589E-2,2.3421742E-2,1.4568067E-1,6.349924E-2,0E0,0E0,0E0,0E0,0E0,0E0,0E0,0E0],"parents":[2147483647,0,0,1,1,2,2,3,3,4,4,5,5,6,6],"right_children":[2,4,6,8,10,12,14,-1,-1,-1,-1,-1,-1,-1,-1],"split_conditions":[2.5598238E0,1.7154497E0,2.250483E0,5E-1,1.3660355E0,6.695E5,4.2642667E-3,2.0030132E-3,7.36245E-4,1.3926115E-3,-1.932426E-3,5.441066E-3,1.6637088E-3,2.0143797E-3,